{"learner":{"attributes":{"best_iteration":"2","best_ntree_limit":"3"},"feature_names":["PGS_integ"],"feature_types":["float"],"gradient_booster":{"model":{"gbtree_model_param":{"num_parallel_tree":"1","num_trees":"3","size_leaf_vector":"0"},"tree_info":[0,0,0],"trees":[{"base_weights":[-2.636689E-1,-4.8224044E-1,-1.3295269E-1,-6.7826086E-1,-4.2105263E-1,-2.0363636E-1,1.24763705E-1,-6.52819E-1,-1.4E0,-7.54717E-2,-4.3738317E-1,6.666667E-1,-2.0614263E-1,1.3282733E-1,-1E0,-9.4214875E-1,-5.852783E-1,-1.5686275E-1,1E0,-7.032967E-1,-4.1182467E-1,-0E0,1E0,-2.032924E-1,-7.368421E-1,1.1001965E-1,7E-1,-7.9611653E-1,-1.4545455E0,2.4E-1,-6.19403E-1,3.1578946E-1,-2.5287357E-1,-5.939394E-1,-1.4285715E0,1.904762E-1,-4.2411643E-1,-2.0512821E-1,6.666667E-1,-8.5714287E-1,-2.2222222E-1,1.300813E-1,-4.2105263E-1,9.677419E-1,-1.5384616E-1,-8.453608E-1,-0E0,-9.52381E-2,1E0,-6.339623E-1,4E-1,-3.3333334E-1,9.0909094E-1,-7.692308E-1,-3.076923E-2,-1.3333334E0,-5.22293E-1,-2.6666668E-1,1E0,-4.0568617E-1,-7.4747473E-1,-2.0251836E-1,-8.5714287E-1,9.863589E-2,9.714286E-1,-9.4736844E-1,8.695652E-2,1.3846154E0,5.4545456E-1,-5E-1,2.2222222E-1],"categories":[],"categories_nodes":[],"categories_segments":[],"categories_sizes":[],"default_left":[1,1,1,1,1,1,1,1,0,1,1,1,1,1,0,1,1,1,0,1,1,0,0,1,1,1,1,1,0,1,1,1,1,1,0,1,1,1,0,0,0,1,1,1,1,0,0,0,0,0,0,0,0,0,0,0,0,0,0,0,0,0,0,0,0,0,0,0,0,0,0],"id":0,"left_children":[1,3,5,7,9,11,13,15,-1,17,19,21,23,25,-1,27,29,31,-1,33,35,-1,-1,37,39,41,43,45,-1,47,49,51,53,55,-1,57,59,61,-1,-1,-1,63,65,67,69,-1,-1,-1,-1,-1,-1,-1,-1,-1,-1,-1,-1,-1,-1,-1,-1,-1,-1,-1,-1,-1,-1,-1,-1,-1,-1],"loss_changes":[5.584903E1,8.494064E0,2.235864E1,2.2535706E0,3.1301804E0,2.236847E0,2.531754E0,2.741333E0,0E0,2.4765077E0,3.3464127E0,6.666666E-1,1.3030777E0,3.331594E0,0E0,1.1055126E0,4.0702667E0,1.2370379E0,0E0,2.7603054E0,3.71212E0,0E0,0E0,1.6647568E0,1.03592396E-1,2.766262E0,2.4349875E0,1.0095081E0,0E0,1.6876191E0,2.2423859E0,2.1323762E0,2.4707336E0,1.4888248E0,0E0,4.152381E0,2.5633163E0,1.4523468E0,0E0,0E0,0E0,6.412485E0,2.6224258E0,6.090679E-1,5.3418803E-1,0E0,0E0,0E0,0E0,0E0,0E0,0E0,0E0,0E0,0E0,0E0,0E0,0E0,0E0,0E0,0E0,0E0,0E0,0E0,0E0,0E0,0E0,0E0,0E0,0E0,0E0],"parents":[2147483647,0,0,1,1,2,2,3,3,4,4,5,5,6,6,7,7,9,9,10,10,11,11,12,12,13,13,15,15,16,16,17,17,19,19,20,20,23,23,24,24,25,25,26,26,27,27,29,29,30,30,31,31,32,32,33,33,35,35,36,36,37,37,41,41,42,42,43,43,44,44],"right_children":[2,4,6,8,10,12,14,16,-1,18,20,22,24,26,-1,28,30,32,-1,34,36,-1,-1,38,40,42,44,46,-1,48,50,52,54,56,-1,58,60,62,-1,-1,-1,64,66,68,70,-1,-1,-1,-1,-1,-1,-1,-1,-1,-1,-1,-1,-1,-1,-1,-1,-1,-1,-1,-1,-1,-1,-1,-1,-1,-1],"split_conditions":[4.8247778E-1,2.5034297E-1,8.0239713E-1,2.4548489E-1,2.6885098E-1,4.831559E-1,1.2875454E0,5.935119E-2,-4.2000002E-1,2.674119E-1,2.9622722E-1,4.826997E-1,8.000763E-1,1.1215887E0,-3E-1,4.2333458E-2,7.9279885E-2,2.5218904E-1,3E-1,2.9468286E-1,3.011483E-1,-0E0,3E-1,7.993028E-1,8.0140203E-1,1.0722461E0,1.2040226E0,3.823849E-2,-4.3636367E-1,7.7056274E-2,2.441702E-1,2.51189E-1,2.5655943E-1,2.6998138E-1,-4.2857146E-1,3.0004472E-1,4.7562265E-1,7.9809284E-1,2.0000002E-1,-2.5714287E-1,-6.666667E-2,1.0347757E0,1.0943058E0,1.1382492E0,1.2228534E0,-2.5360826E-1,-0E0,-2.857143E-2,3E-1,-1.9018869E-1,1.20000005E-1,-1.0000001E-1,2.7272728E-1,-2.3076925E-1,-9.230769E-3,-4.0000004E-1,-1.566879E-1,-8.0000006E-2,3E-1,-1.2170585E-1,-2.2424243E-1,-6.075551E-2,-2.5714287E-1,2.9590769E-2,2.914286E-1,-2.8421053E-1,2.6086958E-2,4.1538465E-1,1.6363637E-1,-1.5E-1,6.666667E-2],"split_indices":[0,0,0,0,0,0,0,0,0,0,0,0,0,0,0,0,0,0,0,0,0,0,0,0,0,0,0,0,0,0,0,0,0,0,0,0,0,0,0,0,0,0,0,0,0,0,0,0,0,0,0,0,0,0,0,0,0,0,0,0,0,0,0,0,0,0,0,0,0,0,0],"split_type":[0,0,0,0,0,0,0,0,0,0,0,0,0,0,0,0,0,0,0,0,0,0,0,0,0,0,0,0,0,0,0,0,0,0,0,0,0,0,0,0,0,0,0,0,0,0,0,0,0,0,0,0,0,0,0,0,0,0,0,0,0,0,0,0,0,0,0,0,0,0,0],"sum_hessian":[1.956E3,7.31E2,1.225E3,1.715E2,5.595E2,9.615E2,2.635E2,1.675E2,4E0,2.55E1,5.34E2,2E0,9.595E2,2.625E2,1E0,2.925E1,1.3825E2,2.45E1,1E0,4.45E1,4.895E2,1E0,1E0,9.5575E2,3.75E0,2.535E2,9E0,2.475E1,4.5E0,5.25E0,1.33E2,3.75E0,2.075E1,4.025E1,4.25E0,9.5E0,4.8E2,9.545E2,1.25E0,2.5E0,1.25E0,2.45E2,8.5E0,6.75E0,2.25E0,2.325E1,1.5E0,4.25E0,1E0,1.315E2,1.5E0,2E0,1.75E0,5.5E0,1.525E1,2E0,3.825E1,6.5E0,3E0,4.5625E2,2.375E1,9.52E2,2.5E0,2.3725E2,7.75E0,3.75E0,4.75E0,2.25E0,4.5E0,1E0,1.25E0],"tree_param":{"num_deleted":"0","num_feature":"1","num_nodes":"71","size_leaf_vector":"0"}},{"base_weights":[-1.8615112E-1,-3.3013615E-1,-8.068898E-2,-4.8550978E-1,-2.8857476E-1,-1.3759592E-1,7.7485904E-2,-4.3045667E-1,-6.9458604E-1,-2.7142844E-1,-7.799831E-1,9.893548E-2,-1.6621862E-1,5.3158665E-1,6.075882E-2,-6.962152E-1,-3.5288897E-1,-9.4339097E-1,-5.1114774E-1,-2.9733115E-1,-5.0906777E-2,-5.8966476E-1,-1.1498716E0,7.961035E-1,6.583162E-2,-5.107529E-1,-1.5284999E-1,2.891209E-1,1.0411315E0,-7.776318E-1,7.298774E-2,-5.766327E-1,-1.0832903E0,3.290459E-1,-3.8500696E-1,-5.4105572E-2,-7.6580054E-1,1.7766567E-1,-3.0807206E-1,1.2371268E0,-9.875999E-2,-8.617195E-1,1.445141E-1,2.2059852E-1,1.1454408E0,-1.4512748E-1,2.1509203E-1,-2.1494019E-1,-1.4701197E0,-1.3758428E-1,-3.2658932E-1,7.1636957E-1,-3.067115E-1,8.136615E-2,-5.060159E-1,-1.1235743E0,-4.8932615E-1,1.9049017E-2,5.018176E-1,-4.1949826E-1,1.6379128E-1,-2.887225E-1,7.758843E-1,-1.1570693E0,-5.4189306E-1,-1.6680208E-1,1.006939E0,-4.633639E-1,-2.8923768E-1,-9.600989E-1,-5.699151E-2,4.366839E-1,-8.8852905E-2,5.8257848E-2,-4.8955336E-1,1.4324357E-1,4.740883E-1,-7.049348E-1,-1.0044211E-1,-1.4291565E-1,9.0112007E-1,-8.6775064E-1,-1.6298182E-1,1.7799424E-1,1.2371268E0,4.051629E-2,-6.332483E-1,6.217041E-2,7.663411E-1,-1.6351238E-1,-5.942346E-1],"categories":[],"categories_nodes":[],"categories_segments":[],"categories_sizes":[],"default_left":[1,1,1,1,1,1,1,1,1,1,1,1,1,1,1,1,1,0,1,1,1,1,0,1,1,1,1,1,0,0,1,1,0,1,1,1,1,1,1,0,1,0,1,0,0,1,1,1,0,1,1,1,1,1,1,0,0,0,0,0,0,0,0,0,0,0,0,0,0,0,0,0,0,0,0,0,0,0,0,0,0,0,0,0,0,0,0,0,0,0,0],"id":1,"left_children":[1,3,5,7,9,11,13,15,17,19,21,23,25,27,29,31,33,-1,35,37,39,41,-1,43,45,47,49,51,-1,-1,53,55,-1,57,59,61,63,65,67,-1,69,-1,71,-1,-1,73,75,77,-1,79,81,83,85,87,89,-1,-1,-1,-1,-1,-1,-1,-1,-1,-1,-1,-1,-1,-1,-1,-1,-1,-1,-1,-1,-1,-1,-1,-1,-1,-1,-1,-1,-1,-1,-1,-1,-1,-1,-1,-1],"loss_changes":[2.959787E1,5.1840744E0,1.0158859E1,1.6869469E0,5.2899666E0,5.632201E0,2.2383533E0,2.6238918E0,1.0847282E0,3.597618E0,8.3415604E-1,2.0285668E0,3.3318005E0,9.951496E-1,3.024322E0,7.83514E-1,2.5311499E0,0E0,2.5126448E0,2.9413033E0,4.29426E0,3.3674455E0,0E0,5.509429E-1,2.7760253E0,7.4104986E0,1.8490181E0,2.381791E0,0E0,0E0,1.4295541E0,6.6214657E-1,0E0,2.8378814E-1,2.061983E0,1.9625794E0,6.009579E-1,3.9229822E0,1.4852791E0,0E0,2.3265815E0,0E0,3.9649302E-1,0E0,0E0,2.6005912E0,8.8956046E-1,1.162384E0,0E0,3.7733917E0,4.9006686E0,1.2506049E0,5.071933E-1,3.6731057E0,3.0368924E-2,0E0,0E0,0E0,0E0,0E0,0E0,0E0,0E0,0E0,0E0,0E0,0E0,0E0,0E0,0E0,0E0,0E0,0E0,0E0,0E0,0E0,0E0,0E0,0E0,0E0,0E0,0E0,0E0,0E0,0E0,0E0,0E0,0E0,0E0,0E0,0E0],"parents":[2147483647,0,0,1,1,2,2,3,3,4,4,5,5,6,6,7,7,8,8,9,9,10,10,11,11,12,12,13,13,14,14,15,15,16,16,18,18,19,19,20,20,21,21,23,23,24,24,25,25,26,26,27,27,30,30,31,31,33,33,34,34,35,35,36,36,37,37,38,38,40,40,42,42,45,45,46,46,47,47,49,49,50,50,51,51,52,52,53,53,54,54],"right_children":[2,4,6,8,10,12,14,16,18,20,22,24,26,28,30,32,34,-1,36,38,40,42,-1,44,46,48,50,52,-1,-1,54,56,-1,58,60,62,64,66,68,-1,70,-1,72,-1,-1,74,76,78,-1,80,82,84,86,88,90,-1,-1,-1,-1,-1,-1,-1,-1,-1,-1,-1,-1,-1,-1,-1,-1,-1,-1,-1,-1,-1,-1,-1,-1,-1,-1,-1,-1,-1,-1,-1,-1,-1,-1,-1,-1],"split_conditions":[5.115504E-1,2.51189E-1,7.8683704E-1,2.268768E-1,5.055144E-1,5.366049E-1,7.8978056E-1,6.2431693E-2,2.3590763E-1,4.8509344E-1,5.098531E-1,5.124882E-1,5.44742E-1,7.888526E-1,7.9147696E-1,4.2333458E-2,7.9279885E-2,-2.830173E-1,2.4108028E-1,2.5909021E-1,4.8551226E-1,5.0829375E-1,-3.449615E-1,5.121132E-1,5.229E-1,5.434908E-1,7.619055E-1,7.882966E-1,3.1233945E-1,-2.3328955E-1,1.2040226E0,-1.7465308E-1,-3.249871E-1,7.187774E-2,2.233699E-1,2.4061272E-1,2.4257559E-1,2.5744712E-1,2.9705513E-1,3.7113807E-1,4.8632264E-1,-2.5851586E-1,5.088738E-1,6.617956E-2,3.4363225E-1,5.198644E-1,5.337595E-1,5.3766227E-1,-4.4103593E-1,7.607599E-1,7.66369E-1,7.8780615E-1,7.8853494E-1,1.1215887E0,1.2404442E0,-3.3707228E-1,-1.4679785E-1,5.714705E-3,1.5054528E-1,-1.2584949E-1,4.9137387E-2,-8.661675E-2,2.3276529E-1,-3.4712082E-1,-1.6256793E-1,-5.0040625E-2,3.0208173E-1,-1.3900918E-1,-8.677131E-2,-2.880297E-1,-1.7097455E-2,1.3100517E-1,-2.6655873E-2,1.7477356E-2,-1.4686601E-1,4.297307E-2,1.422265E-1,-2.1148044E-1,-3.0132635E-2,-4.2874698E-2,2.7033603E-1,-2.603252E-1,-4.889455E-2,5.3398274E-2,3.7113807E-1,1.2154887E-2,-1.899745E-1,1.8651124E-2,2.2990234E-1,-4.9053717E-2,-1.7827038E-1],"split_indices":[0,0,0,0,0,0,0,0,0,0,0,0,0,0,0,0,0,0,0,0,0,0,0,0,0,0,0,0,0,0,0,0,0,0,0,0,0,0,0,0,0,0,0,0,0,0,0,0,0,0,0,0,0,0,0,0,0,0,0,0,0,0,0,0,0,0,0,0,0,0,0,0,0,0,0,0,0,0,0,0,0,0,0,0,0,0,0,0,0,0,0],"split_type":[0,0,0,0,0,0,0,0,0,0,0,0,0,0,0,0,0,0,0,0,0,0,0,0,0,0,0,0,0,0,0,0,0,0,0,0,0,0,0,0,0,0,0,0,0,0,0,0,0,0,0,0,0,0,0,0,0,0,0,0,0,0,0,0,0,0,0,0,0,0,0,0,0,0,0,0,0,0,0,0,0,0,0,0,0,0,0,0,0,0,0],"sum_hessian":[1.9499104E3,8.234892E2,1.1264211E3,1.7153578E2,6.519534E2,8.284853E2,2.9793588E2,1.3820345E2,3.333233E1,6.3147235E2,2.0481094E1,8.9167694E1,7.3931757E2,9.49124E0,2.8844467E2,2.9422379E1,1.0878107E2,1.2387642E1,2.0944687E1,5.647839E2,6.6688446E1,1.5235936E1,5.245158E0,2.9972334E0,8.617046E1,2.6225792E1,7.130918E2,7.4930835E0,1.9981556E0,3.2470028E0,2.8519766E2,2.4380127E1,5.042251E0,4.4771194E0,1.0430395E2,7.928091E0,1.3016597E1,1.2145171E1,5.5263873E2,1.4986167E0,6.518983E1,1.0989856E1,4.2460804E0,1.7483861E0,1.2488472E0,3.571703E1,5.045343E1,2.0980633E1,5.245158E0,6.5714343E2,5.5948357E1,4.2460804E0,3.2470028E0,2.819768E2,3.2208414E0,1.7221601E0,2.2657969E1,1.9995921E0,2.4775274E0,9.835788E1,5.9460683E0,6.689327E0,1.2387643E0,3.220787E0,9.79581E0,9.145235E0,2.999936E0,5.7223362E1,4.9541534E2,1.9981556E0,6.319167E1,1.4986167E0,2.747464E0,2.297879E1,1.2738242E1,4.071242E1,9.741009E0,2.9972334E0,1.79834E1,6.5464575E2,2.4976945E0,1.1988934E1,4.3959423E1,2.747464E0,1.4986167E0,1.9981556E0,1.2488472E0,2.7535114E2,6.625678E0,1.2441185E0,1.976723E0],"tree_param":{"num_deleted":"0","num_feature":"1","num_nodes":"91","size_leaf_vector":"0"}},{"base_weights":[-1.3229668E-1,-2.3643352E-1,-5.665247E-2,-3.585352E-1,-2.0470235E-1,-9.2346415E-2,7.750921E-2,-3.3762184E-1,-1.0116571E0,-1.9170575E-1,-5.84632E-1,7.14137E-2,-1.1284199E-1,5.628733E-1,2.5238518E-2,-3.4732744E-1,4.2565262E-1,-1.9618477E-1,5.589948E-1,-4.3104705E-1,-8.938671E-1,6.639106E-1,4.6269733E-2,-6.2467104E-1,-1.0118413E-1,9.5839635E-2,8.9928746E-1,-4.546808E-1,8.6489275E-2,-2.9077032E-1,-4.998907E-1,-1.8964842E-1,-8.156737E-1,7.10494E-1,2.31559E-1,-6.4118946E-1,1.2109644E-1,1.7836736E-1,9.6558684E-1,-2.9307467E-1,1.0736486E-1,-3.5463908E-1,-1.2680538E0,-9.6897766E-2,-7.752764E-1,1.2424937E0,-2.6523274E-1,1.0265632E0,2.5136688E-1,-1.0390695E0,-2.899426E-1,1.0090487E0,6.016619E-2,-3.2063437E-1,1.1261495E0,-7.7467126E-1,-3.8814512E-1,-2.0026137E-1,2.3193203E-1,-1.0884528E0,-3.4331778E-1,-7.391932E-1,-3.5382316E-1,3.5813245E-1,-6.9369555E-2,9.550863E-2,-7.216089E-1,5.3917146E-1,4.720086E-2,-1.1469237E0,-1.6269216E-1,-1.5510398E-1,-5.1184036E-2,-1.2293686E0,9.157795E-2,-2.4909857E-1,6.4007765E-1,3.8742238E-1,-5.969536E-1,1.3016831E0,4.2831916E-1,-6.9909275E-1,7.2135575E-2],"categories":[],"categories_nodes":[],"categories_segments":[],"categories_sizes":[],"default_left":[1,1,1,1,1,1,1,1,0,1,1,1,1,1,1,1,0,1,1,1,0,1,1,1,1,1,1,1,1,1,1,1,1,0,0,1,1,0,0,1,1,1,0,1,0,0,1,0,1,0,1,1,1,0,0,0,0,0,0,0,0,0,0,0,0,0,0,0,0,0,0,0,0,0,0,0,0,0,0,0,0,0,0],"id":2,"left_children":[1,3,5,7,9,11,13,15,-1,17,19,21,23,25,27,29,-1,31,33,35,-1,37,39,41,43,45,47,49,51,53,55,57,59,-1,-1,61,63,-1,-1,65,67,69,-1,71,-1,-1,73,-1,75,-1,77,79,81,-1,-1,-1,-1,-1,-1,-1,-1,-1,-1,-1,-1,-1,-1,-1,-1,-1,-1,-1,-1,-1,-1,-1,-1,-1,-1,-1,-1,-1,-1],"loss_changes":[1.5265797E1,3.0873718E0,5.3937235E0,1.9387417E0,3.096775E0,2.9915776E0,5.9965234E0,1.3573227E0,0E0,2.2274704E0,6.124058E-1,1.451462E0,4.6531277E0,3.525487E0,6.3573575E0,1.2504597E0,0E0,2.3835602E0,3.367853E-2,1.9303095E0,0E0,4.1006172E-1,2.0324454E0,2.5748649E0,2.161325E0,4.7779717E0,8.340244E-1,2.0560565E0,4.5884857E0,5.4560966E0,9.999933E-1,2.827671E0,4.3059635E-1,0E0,0E0,6.864929E-2,2.615465E-1,0E0,0E0,2.5656471E0,2.118399E0,1.8893697E0,0E0,2.0416074E0,0E0,0E0,3.207108E0,0E0,8.4003663E-1,0E0,4.4920635E0,3.3423615E-1,1.7516649E0,0E0,0E0,0E0,0E0,0E0,0E0,0E0,0E0,0E0,0E0,0E0,0E0,0E0,0E0,0E0,0E0,0E0,0E0,0E0,0E0,0E0,0E0,0E0,0E0,0E0,0E0,0E0,0E0,0E0,0E0],"parents":[2147483647,0,0,1,1,2,2,3,3,4,4,5,5,6,6,7,7,9,9,10,10,11,11,12,12,13,13,14,14,15,15,17,17,18,18,19,19,21,21,22,22,23,23,24,24,25,25,26,26,27,27,28,28,29,29,30,30,31,31,32,32,35,35,36,36,39,39,40,40,41,41,43,43,46,46,48,48,50,50,51,51,52,52],"right_children":[2,4,6,8,10,12,14,16,-1,18,20,22,24,26,28,30,-1,32,34,36,-1,38,40,42,44,46,48,50,52,54,56,58,60,-1,-1,62,64,-1,-1,66,68,70,-1,72,-1,-1,74,-1,76,-1,78,80,82,-1,-1,-1,-1,-1,-1,-1,-1,-1,-1,-1,-1,-1,-1,-1,-1,-1,-1,-1,-1,-1,-1,-1,-1,-1,-1,-1,-1,-1,-1],"split_conditions":[5.115504E-1,2.5034297E-1,8.1677747E-1,2.4548489E-1,5.055144E-1,5.3980845E-1,8.2861847E-1,2.441702E-1,-3.0349714E-1,5.048027E-1,5.098531E-1,5.124882E-1,5.44742E-1,8.2125247E-1,8.447362E-1,2.15474E-1,1.276958E-1,5.037428E-1,5.052239E-1,5.0829375E-1,-2.6816013E-1,5.121132E-1,5.169729E-1,5.436747E-1,8.139721E-1,8.1767297E-1,8.277993E-1,8.312013E-1,8.475888E-1,2.1465912E-1,2.233699E-1,4.9835294E-1,5.040635E-1,2.131482E-1,6.94677E-2,5.072296E-1,5.088738E-1,5.351021E-2,2.8967607E-1,5.1476514E-1,5.198644E-1,5.402097E-1,-3.8041615E-1,6.414398E-1,-2.3258294E-1,3.7274814E-1,8.186663E-1,3.0796897E-1,8.2837546E-1,-3.1172088E-1,8.345821E-1,8.458425E-1,8.487146E-1,-9.619031E-2,3.3784488E-1,-2.3240139E-1,-1.1644354E-1,-6.0078412E-2,6.957961E-2,-3.2653585E-1,-1.02995336E-1,-2.2175796E-1,-1.06146954E-1,1.0743974E-1,-2.0810867E-2,2.865259E-2,-2.1648267E-1,1.6175145E-1,1.4160258E-2,-3.440771E-1,-4.880765E-2,-4.6531197E-2,-1.5355212E-2,-3.688106E-1,2.7473385E-2,-7.472958E-2,1.920233E-1,1.1622672E-1,-1.7908607E-1,3.9050493E-1,1.2849575E-1,-2.0972784E-1,2.1640673E-2],"split_indices":[0,0,0,0,0,0,0,0,0,0,0,0,0,0,0,0,0,0,0,0,0,0,0,0,0,0,0,0,0,0,0,0,0,0,0,0,0,0,0,0,0,0,0,0,0,0,0,0,0,0,0,0,0,0,0,0,0,0,0,0,0,0,0,0,0,0,0,0,0,0,0,0,0,0,0,0,0,0,0,0,0,0,0],"split_type":[0,0,0,0,0,0,0,0,0,0,0,0,0,0,0,0,0,0,0,0,0,0,0,0,0,0,0,0,0,0,0,0,0,0,0,0,0,0,0,0,0,0,0,0,0,0,0,0,0,0,0,0,0,0,0,0,0,0,0,0,0,0,0,0,0,0,0,0,0,0,0,0,0,0,0,0,0,0,0,0,0,0,0],"sum_hessian":[1.9386365E3,8.148013E2,1.1238352E3,1.6594504E2,6.488562E2,8.879154E2,2.3591975E2,1.6226611E2,3.678928E0,6.288492E2,2.0007027E1,9.849043E1,7.89425E2,2.1987204E1,2.1393256E2,1.607668E2,1.4993206E0,6.258537E2,2.9954588E0,1.4967279E1,5.0397463E0,2.9753108E0,9.551512E1,1.6409193E1,7.730158E2,9.744329E0,1.2242875E1,2.3486332E1,1.9044621E2,1.1940702E2,4.135977E1,6.206117E2,5.242053E0,1.2481079E0,1.7473509E0,1.0724376E1,4.242904E0,1.7499871E0,1.2253238E0,1.3993447E1,8.1521675E1,1.2650785E1,3.7584069E0,7.69268E2,3.747819E0,1.7489822E0,7.995347E0,9.744329E0,2.498546E0,3.9976735E0,1.9488659E1,4.247528E0,1.8619868E2,1.17700005E2,1.7070196E0,1.0242118E1,3.1117655E1,6.05884E2,1.4727673E1,2.4962158E0,2.7458372E0,6.8246026E0,3.899773E0,1.4981508E0,2.7447534E0,7.746372E0,6.2470746E0,8.995788E0,7.252589E1,1.4969065E0,1.1153879E1,3.3734348E2,4.319245E2,1.4991276E0,6.4962196E0,1.249273E0,1.249273E0,5.9965105E0,1.3492148E1,1.9988368E0,2.2486913E0,1.9988368E0,1.8419986E2],"tree_param":{"num_deleted":"0","num_feature":"1","num_nodes":"83","size_leaf_vector":"0"}}]},"name":"gbtree"},"learner_model_param":{"base_score":"5E-1","num_class":"0","num_feature":"1","num_target":"1"},"objective":{"name":"binary:logistic","reg_loss_param":{"scale_pos_weight":"1"}}},"version":[1,6,1]}