{"learner":{"attributes":{"best_iteration":"9","best_ntree_limit":"10"},"feature_names":["AGE","SEX","BMI"],"feature_types":["float","c","float"],"gradient_booster":{"model":{"gbtree_model_param":{"num_parallel_tree":"1","num_trees":"10","size_leaf_vector":"0"},"tree_info":[0,0,0,0,0,0,0,0,0,0],"trees":[{"base_weights":[-2.636689E-1,-1.0453293E0,5.496223E-1,-1.471618E0,-6.628788E-1,1.827112E-1,9.618152E-1,-1.2220609E0,-1.61E0,-1.871345E-1,-8.882682E-1,6.729264E-1,-4.1399002E-2,8.383485E-1,1.4136126E0,-1.3368984E0,-6.969697E-1,-1.676359E0,-1.4673123E0,-3.9647576E-1,2.2222222E-1,-1.2201835E0,-7.4E-1,5.546219E-1,8.111888E-1,-1.7288443E-1,4.3137255E-1,3.908046E-1,9.7880185E-1,1.6136364E0,1.2190477E0,-1.514754E0,-1.1076924E0,8E-1,-7.936508E-1,-7.5E-1,-1.686778E0,-5.102041E-1,3.030303E-1,6.521739E-2,7.407407E-1,-1.2487805E0,-6.666667E-1,-9.205298E-1,-4.6E-1,-3.1578946E-1,5.964912E-1,7.368421E-1,1.5E0,-5.22293E-1,-3.2953106E-2,8.196721E-1,3.2931727E-1,5.4054055E-2,4.7482014E-1,1.1712474E0,8.246753E-1,1.2512316E0,1.8181819E-1,-1.5358362E0,-7.5E-1,-6.666667E-1,-1.1644444E0,-1.030303E0,6.451613E-2,-1E0,-0E0,-2.8985508E-2,-6.055046E-1,1E0,1.3793103E-1,1.8705036E-1,-2.857143E-1,1E0,-2.857143E-1,-1.14377E0,-1.5247525E0,5E-1,-9.230769E-1,-1.144654E0,-8.3296216E-1,2.2222222E-1,-5.039788E-1,1.3333334E-1,-1E0,1.3191489E0,4.749164E-1,8E-1,-1.2E0,-3.966942E-1,-8.947368E-1,-9.400324E-2,1.8181819E-1,4.7058824E-1,1.0967742E0,2.020202E-2,5.194805E-1,3.448276E-1,-1.2244898E-1,5.207547E-1,-3.529412E-1,6.0194176E-1,1.315508E0,7.5491947E-1,1.409836E0],"categories":[],"categories_nodes":[],"categories_segments":[],"categories_sizes":[],"default_left":[1,1,1,1,1,1,1,1,1,1,1,1,1,1,1,1,1,1,0,1,1,1,1,1,1,1,1,1,1,0,1,1,1,0,1,1,0,1,1,1,1,1,1,1,1,1,1,1,0,1,1,1,1,1,1,1,1,0,0,0,0,0,0,0,0,0,0,0,0,0,0,0,0,0,0,0,0,0,0,0,0,0,0,0,0,0,0,0,0,0,0,0,0,0,0,0,0,0,0,0,0,0,0,0,0],"id":0,"left_children":[1,3,5,7,9,11,13,15,17,19,21,23,25,27,29,31,33,35,-1,37,39,41,43,45,47,49,51,53,55,-1,57,59,61,-1,63,65,-1,67,69,71,73,75,77,79,81,83,85,87,-1,89,91,93,95,97,99,101,103,-1,-1,-1,-1,-1,-1,-1,-1,-1,-1,-1,-1,-1,-1,-1,-1,-1,-1,-1,-1,-1,-1,-1,-1,-1,-1,-1,-1,-1,-1,-1,-1,-1,-1,-1,-1,-1,-1,-1,-1,-1,-1,-1,-1,-1,-1,-1,-1],"loss_changes":[1.2446738E3,1.6177356E2,1.4497507E2,1.4306641E1,5.6450012E1,5.594774E1,2.4014374E1,9.454895E0,3.8085938E-1,1.4741995E1,1.6715118E1,2.1631393E0,2.184702E1,2.2073868E1,1.7495422E0,4.039505E0,5.410967E0,6.435547E-1,0E0,9.183947E0,4.7141705E0,8.9282227E-1,1.2213654E1,3.440956E0,2.5563126E0,1.3416197E1,2.761612E0,2.4357624E0,7.079651E0,0E0,1.5250626E0,7.746887E-2,8.506012E-1,0E0,6.4637165E0,7.5E-1,0E0,4.4767647E0,1.7607105E0,2.0201752E0,3.8783069E0,1.226471E0,2.7051284E0,2.0100708E0,3.1123257E0,1.5929824E0,6.8852863E0,9.094734E0,0E0,3.317175E0,2.6033974E0,9.590311E-1,3.6487074E0,9.916883E-1,2.8263845E0,8.919815E0,5.221718E0,0E0,0E0,0E0,0E0,0E0,0E0,0E0,0E0,0E0,0E0,0E0,0E0,0E0,0E0,0E0,0E0,0E0,0E0,0E0,0E0,0E0,0E0,0E0,0E0,0E0,0E0,0E0,0E0,0E0,0E0,0E0,0E0,0E0,0E0,0E0,0E0,0E0,0E0,0E0,0E0,0E0,0E0,0E0,0E0,0E0,0E0,0E0,0E0],"parents":[2147483647,0,0,1,1,2,2,3,3,4,4,5,5,6,6,7,7,8,8,9,9,10,10,11,11,12,12,13,13,14,14,15,15,16,16,17,17,19,19,20,20,21,21,22,22,23,23,24,24,25,25,26,26,27,27,28,28,30,30,31,31,32,32,34,34,35,35,37,37,38,38,39,39,40,40,41,41,42,42,43,43,44,44,45,45,46,46,47,47,49,49,50,50,51,51,52,52,53,53,54,54,55,55,56,56],"right_children":[2,4,6,8,10,12,14,16,18,20,22,24,26,28,30,32,34,36,-1,38,40,42,44,46,48,50,52,54,56,-1,58,60,62,-1,64,66,-1,68,70,72,74,76,78,80,82,84,86,88,-1,90,92,94,96,98,100,102,104,-1,-1,-1,-1,-1,-1,-1,-1,-1,-1,-1,-1,-1,-1,-1,-1,-1,-1,-1,-1,-1,-1,-1,-1,-1,-1,-1,-1,-1,-1,-1,-1,-1,-1,-1,-1,-1,-1,-1,-1,-1,-1,-1,-1,-1,-1,-1,-1],"split_conditions":[5.75E1,4.75E1,6.45E1,5E-1,5E-1,5E-1,7.05E1,2.873608E1,4.35E1,5.45E1,5.15E1,6.15E1,2.6002754E1,2.195436E1,5E-1,4.15E1,2.8959637E1,1.744521E1,-4.401937E-1,2.9332989E1,2.779852E1,3.075697E1,2.405368E1,2.0249496E1,3.015337E1,5.95E1,2.650375E1,1.9199749E1,5E-1,4.8409092E-1,3.0708176E1,2.8324314E1,4.25E1,2.4000001E-1,4.45E1,3.95E1,-5.060334E-1,2.2025242E1,2.9724968E1,2.6008656E1,3.2715233E1,2.5275627E1,3.1207802E1,5.35E1,2.428363E1,1.938086E1,2.2635033E1,2.9404934E1,4.5000002E-1,2.4197998E1,6.35E1,2.6274767E1,2.7980255E1,1.7713833E1,2.187948E1,6.55E1,2.9019306E1,3.753695E-1,5.454546E-2,-4.6075088E-1,-2.2500001E-1,-2.0000002E-1,-3.4933335E-1,-3.090909E-1,1.9354839E-2,-3E-1,-0E0,-8.695653E-3,-1.8165138E-1,3E-1,4.137931E-2,5.611511E-2,-8.5714296E-2,3E-1,-8.5714296E-2,-3.43131E-1,-4.5742577E-1,1.5E-1,-2.769231E-1,-3.4339622E-1,-2.4988866E-1,6.666667E-2,-1.5119365E-1,4.0000003E-2,-3E-1,3.9574468E-1,1.4247492E-1,2.4000001E-1,-3.6E-1,-1.19008265E-1,-2.6842105E-1,-2.8200973E-2,5.454546E-2,1.4117648E-1,3.2903227E-1,6.0606063E-3,1.5584417E-1,1.0344828E-1,-3.6734696E-2,1.5622641E-1,-1.0588236E-1,1.8058254E-1,3.9465243E-1,2.2647585E-1,4.2295083E-1],"split_indices":[0,0,0,1,1,1,0,2,0,0,0,0,2,2,1,0,2,2,0,2,2,2,2,2,2,0,2,2,1,0,2,2,0,0,0,0,0,2,2,2,2,2,2,0,2,2,2,2,0,2,0,2,2,2,2,0,2,0,0,0,0,0,0,0,0,0,0,0,0,0,0,0,0,0,0,0,0,0,0,0,0,0,0,0,0,0,0,0,0,0,0,0,0,0,0,0,0,0,0,0,0,0,0,0,0],"split_type":[0,0,0,0,0,0,0,0,0,0,0,0,0,0,0,0,0,0,0,0,0,0,0,0,0,0,0,0,0,0,0,0,0,0,0,0,0,0,0,0,0,0,0,0,0,0,0,0,0,0,0,0,0,0,0,0,0,0,0,0,0,0,0,0,0,0,0,0,0,0,0,0,0,0,0,0,0,0,0,0,0,0,0,0,0,0,0,0,0,0,0,0,0,0,0,0,0,0,0,0,0,0,0,0,0],"sum_hessian":[1.956E3,9.9725E2,9.5875E2,4.7025E2,5.27E2,5.08E2,4.5075E2,1.7125E2,2.99E2,1.7E2,3.57E2,1.5875E2,3.4925E2,3.5625E2,9.45E1,1.3925E2,3.2E1,1.9675E2,1.0225E2,1.125E2,5.75E1,1.08E2,2.49E2,8.825E1,7.05E1,2.7375E2,7.55E1,8.6E1,2.7025E2,4.3E1,5.15E1,7.525E1,6.4E1,1.5E0,3.05E1,3E0,1.9375E2,9.7E1,1.55E1,4.5E1,1.25E1,1.015E2,6.5E0,1.5E2,9.9E1,3.75E0,8.45E1,6.55E1,5E0,7.75E1,1.9625E2,1.425E1,6.125E1,1.75E1,6.85E1,1.1725E2,1.53E2,4.975E1,1.75E0,7.225E1,3E0,8.75E0,5.525E1,2.375E1,6.75E0,2E0,1E0,1.625E1,8.075E1,2E0,1.35E1,3.375E1,1.125E1,1E1,2.5E0,7.725E1,2.425E1,1E0,5.5E0,3.875E1,1.1125E2,5.75E0,9.325E1,2.75E0,1E0,1.075E1,7.375E1,6.4E1,1.5E0,5.95E1,1.8E1,1.5325E2,4.3E1,7.5E0,6.75E0,2.375E1,3.75E1,6.25E0,1.125E1,6.525E1,3.25E0,2.475E1,9.25E1,1.3875E2,1.425E1],"tree_param":{"num_deleted":"0","num_feature":"3","num_nodes":"105","size_leaf_vector":"0"}},{"base_weights":[-1.9069669E-1,-7.6340175E-1,3.952154E-1,-1.0961477E0,-4.7500855E-1,7.853948E-2,6.5394926E-1,-8.9939165E-1,-1.2077137E0,-1.2985939E-1,-6.4080733E-1,4.3606544E-1,-8.4390864E-2,4.6178952E-1,8.5340893E-1,-1.2996471E0,-7.9784346E-1,-1.2641762E0,-1.088883E0,-3.1350392E-1,1.09002635E-1,-8.961308E-1,-5.2905494E-1,7.036885E-1,3.6047095E-1,-1.7402416E-1,2.3456144E-1,3.658464E-1,9.212336E-1,5.745889E-1,9.643591E-1,-8.965828E-1,-3.5534188E-1,-6.0785204E-1,-1.2714607E0,-6.416771E-1,-1.1193595E0,-3.481952E-1,6.3652587E-1,-3.1394918E-2,5.521822E-1,-7.687397E-1,-9.8763126E-1,-6.6292524E-1,-3.2175124E-1,-2.256894E-1,7.730433E-1,-9.090971E-1,3.871679E-1,-3.8616621E-1,-6.630631E-2,1.8222536E-1,6.278165E-1,9.737932E-2,4.2650005E-1,9.8096603E-1,-2.907579E-1,-3.28402E-1,6.23204E-1,1.156651E0,7.764363E-1,-8.5043246E-1,-1.2547776E0,-2.5958344E-1,-1.0129662E0,-8.135085E-1,-0E0,-1.2748245E0,-4.0520406E-1,-8.703994E-1,-8.5237615E-2,-1.3946675E0,-1.0339872E0,5.0652885E-1,-3.8207802E-1,1.9928433E-1,7.75375E-1,6.432106E-2,-3.5017914E-1,6.708893E-1,-7.908257E-2,-9.039119E-1,-1.7327474E-1,-1.0396134E0,-4.9203795E-1,-8.367297E-1,-5.9663373E-1,2.7805576E-1,-3.5668287E-1,4.682648E-1,8.447075E-1,3.286663E-1,6.6460204E-1,-2.880396E-1,-7.993086E-1,-1.0575461E0,-4.4603065E-2,2.6646417E-1,-3.8814214E-1,1.0400739E0,-1.1157445E-1,1.9973986E-1,-1.0134809E0,2.4016069E-1,5.3460306E-1,1.1892487E0,7.649195E-1,1.009302E0,-1.1500996E0,1.4238954E0,5.6135434E-1,2.8999713E-1,1.1702408E0,4.6583742E-1,9.9013114E-1],"categories":[],"categories_nodes":[],"categories_segments":[],"categories_sizes":[],"default_left":[1,1,1,1,1,1,1,1,1,1,1,1,1,1,1,0,1,1,1,1,1,1,1,1,1,1,1,1,1,1,1,1,1,1,1,1,1,1,1,1,1,1,1,1,1,0,1,0,1,1,1,1,1,1,1,1,0,1,1,1,1,0,0,0,0,0,0,0,0,0,0,0,0,0,0,0,0,0,0,0,0,0,0,0,0,0,0,0,0,0,0,0,0,0,0,0,0,0,0,0,0,0,0,0,0,0,0,0,0,0,0,0,0,0,0],"id":1,"left_children":[1,3,5,7,9,11,13,15,17,19,21,23,25,27,29,-1,31,33,35,37,39,41,43,45,47,49,51,53,55,57,59,61,63,65,67,69,71,73,75,77,79,81,83,85,87,-1,89,-1,91,93,95,97,99,101,103,105,-1,107,109,111,113,-1,-1,-1,-1,-1,-1,-1,-1,-1,-1,-1,-1,-1,-1,-1,-1,-1,-1,-1,-1,-1,-1,-1,-1,-1,-1,-1,-1,-1,-1,-1,-1,-1,-1,-1,-1,-1,-1,-1,-1,-1,-1,-1,-1,-1,-1,-1,-1,-1,-1,-1,-1,-1,-1],"loss_changes":[6.420746E2,9.232489E1,7.7462585E1,8.757996E0,2.9678085E1,2.4882767E1,1.9556366E1,5.717926E0,5.2401733E-1,7.491941E0,9.542633E0,2.4509506E0,8.441314E0,1.14452095E1,7.310486E0,0E0,5.5863724E0,1.1550903E-1,6.235657E-1,3.3979168E0,4.6614895E0,4.6975708E-1,6.630951E0,2.0047016E0,3.9546185E0,5.2291503E0,1.2210584E0,3.58601E0,3.580326E0,3.4901352E0,5.620392E0,7.485962E-1,1.3939943E0,4.944929E-1,1.6296387E-2,1.0234683E0,6.927185E-1,2.904975E0,7.307315E-2,1.7809333E0,1.4026904E0,3.7540398E0,9.7878265E-1,1.2164841E0,2.167447E0,0E0,1.8651009E-1,0E0,1.4825888E0,2.9008055E0,3.2598195E0,2.9225678E0,2.314465E0,5.018074E0,3.526165E0,1.0525475E0,0E0,6.083364E0,2.7347775E0,6.866379E-1,5.7959023E0,0E0,0E0,0E0,0E0,0E0,0E0,0E0,0E0,0E0,0E0,0E0,0E0,0E0,0E0,0E0,0E0,0E0,0E0,0E0,0E0,0E0,0E0,0E0,0E0,0E0,0E0,0E0,0E0,0E0,0E0,0E0,0E0,0E0,0E0,0E0,0E0,0E0,0E0,0E0,0E0,0E0,0E0,0E0,0E0,0E0,0E0,0E0,0E0,0E0,0E0,0E0,0E0,0E0,0E0],"parents":[2147483647,0,0,1,1,2,2,3,3,4,4,5,5,6,6,7,7,8,8,9,9,10,10,11,11,12,12,13,13,14,14,16,16,17,17,18,18,19,19,20,20,21,21,22,22,23,23,24,24,25,25,26,26,27,27,28,28,29,29,30,30,31,31,32,32,33,33,34,34,35,35,36,36,37,37,38,38,39,39,40,40,41,41,42,42,43,43,44,44,46,46,48,48,49,49,50,50,51,51,52,52,53,53,54,54,55,55,57,57,58,58,59,59,60,60],"right_children":[2,4,6,8,10,12,14,16,18,20,22,24,26,28,30,-1,32,34,36,38,40,42,44,46,48,50,52,54,56,58,60,62,64,66,68,70,72,74,76,78,80,82,84,86,88,-1,90,-1,92,94,96,98,100,102,104,106,-1,108,110,112,114,-1,-1,-1,-1,-1,-1,-1,-1,-1,-1,-1,-1,-1,-1,-1,-1,-1,-1,-1,-1,-1,-1,-1,-1,-1,-1,-1,-1,-1,-1,-1,-1,-1,-1,-1,-1,-1,-1,-1,-1,-1,-1,-1,-1,-1,-1,-1,-1,-1,-1,-1,-1,-1,-1],"split_conditions":[5.75E1,4.75E1,6.35E1,5E-1,5E-1,5E-1,2.4119268E1,3.65E1,4.35E1,5.35E1,5.15E1,2.2916374E1,2.5930225E1,7.05E1,6.55E1,-3.8989416E-1,2.87513E1,1.744521E1,1.9617851E1,3.245367E1,2.754264E1,2.278585E1,2.4072994E1,1.8476572E1,2.301746E1,5.95E1,3.2150215E1,6.45E1,2.3947506E1,2.428177E1,5E-1,2.7639038E1,4.65E1,3.95E1,3.5843468E1,1.9194023E1,2.1068136E1,1.967109E1,5.05E1,2.6008656E1,3.2715233E1,2.217661E1,3.075697E1,5.35E1,2.428363E1,-6.770682E-2,5.95E1,-2.7272913E-1,2.8672832E1,2.4501053E1,1.7492931E1,3.0096333E1,3.4309906E1,2.388398E1,2.1368893E1,2.1795134E1,-8.7227374E-2,2.4192287E1,2.442809E1,2.4166231E1,2.600874E1,-2.5512975E-1,-3.7643328E-1,-7.787503E-2,-3.0388987E-1,-2.4405256E-1,-0E0,-3.8244736E-1,-1.2156122E-1,-2.6111984E-1,-2.5571285E-2,-4.1840026E-1,-3.1019616E-1,1.5195866E-1,-1.1462341E-1,5.9785303E-2,2.326125E-1,1.929632E-2,-1.05053745E-1,2.0126681E-1,-2.3724772E-2,-2.7117357E-1,-5.1982425E-2,-3.1188402E-1,-1.476114E-1,-2.510189E-1,-1.7899013E-1,8.341673E-2,-1.07004866E-1,1.4047945E-1,2.5341225E-1,9.8599896E-2,1.9938062E-1,-8.641188E-2,-2.3979259E-1,-3.1726384E-1,-1.338092E-2,7.993925E-2,-1.1644264E-1,3.1202218E-1,-3.3472337E-2,5.992196E-2,-3.0404428E-1,7.204821E-2,1.6038093E-1,3.5677463E-1,2.2947587E-1,3.027906E-1,-3.450299E-1,4.2716864E-1,1.6840631E-1,8.699914E-2,3.5107225E-1,1.3975123E-1,2.9703936E-1],"split_indices":[0,0,0,1,1,1,2,0,0,0,0,2,2,0,0,0,2,2,2,2,2,2,2,2,2,0,2,0,2,2,1,2,0,0,2,2,2,2,0,2,2,2,2,0,2,0,0,0,2,2,2,2,2,2,2,2,0,2,2,2,2,0,0,0,0,0,0,0,0,0,0,0,0,0,0,0,0,0,0,0,0,0,0,0,0,0,0,0,0,0,0,0,0,0,0,0,0,0,0,0,0,0,0,0,0,0,0,0,0,0,0,0,0,0,0],"split_type":[0,0,0,0,0,0,0,0,0,0,0,0,0,0,0,0,0,0,0,0,0,0,0,0,0,0,0,0,0,0,0,0,0,0,0,0,0,0,0,0,0,0,0,0,0,0,0,0,0,0,0,0,0,0,0,0,0,0,0,0,0,0,0,0,0,0,0,0,0,0,0,0,0,0,0,0,0,0,0,0,0,0,0,0,0,0,0,0,0,0,0,0,0,0,0,0,0,0,0,0,0,0,0,0,0,0,0,0,0,0,0,0,0,0,0],"sum_hessian":[1.9115724E3,9.6652795E2,9.4504443E2,4.4745584E2,5.190721E2,4.2552682E2,5.1951764E2,1.6519037E2,2.8226547E2,1.6901364E2,3.5005844E2,1.3268759E2,2.9283923E2,2.6628928E2,2.5322835E2,3.1041405E1,1.3414896E2,1.8481305E2,9.745243E1,9.5374374E1,7.3639275E1,1.0443479E2,2.4562364E2,2.7394743E1,1.05292854E2,2.2895244E2,6.3886776E1,2.2177379E2,4.4515476E1,7.384165E1,1.793867E2,1.0883701E2,2.5311943E1,2.9556665E0,1.8185739E2,7.62464E0,8.982779E1,9.262556E1,2.7488232E0,5.6628685E1,1.7010586E1,4.7585537E1,5.6849255E1,1.4791008E2,9.7713554E1,1.7458345E0,2.5648909E1,1.4878109E0,1.0380504E2,7.6232796E1,1.5271965E2,5.7674572E1,6.212204E0,4.1350853E1,1.8042294E2,4.2606262E1,1.909214E0,3.478365E0,7.036328E1,8.611483E1,9.3271866E1,9.940389E1,9.433123E0,2.331213E1,1.9998127E0,1.9556665E0,1E0,1.8068411E2,1.1732734E0,5.00367E0,2.62097E0,1.763198E1,7.219581E1,2.9999435E0,8.962561E1,1.249465E0,1.499358E0,4.416595E1,1.2462736E1,1.426528E1,2.7453065E0,3.8359768E1,9.225767E0,5.045897E1,6.390285E0,3.7629723E1,1.1028036E2,4.9944487E0,9.271911E1,6.3171287E0,1.9331781E1,8.7532104E1,1.6272934E1,6.2973076E1,1.3259723E1,2.249553E0,1.504701E2,5.0716904E1,6.9576683E0,3.7273223E0,2.4848816E0,3.8613037E1,2.7378159E0,6.742415E1,1.12998795E2,1.9399406E1,2.3206856E1,1.2367129E0,2.241652E0,3.4663842E0,6.6896904E1,1.6743783E0,8.444045E1,3.931241E1,5.395946E1],"tree_param":{"num_deleted":"0","num_feature":"3","num_nodes":"115","size_leaf_vector":"0"}},{"base_weights":[-1.4345898E-1,-5.803975E-1,2.8920516E-1,-8.6920357E-1,-3.4657356E-1,5.5682622E-2,4.8612422E-1,-6.9128394E-1,-9.752636E-1,-8.930949E-2,-4.7377542E-1,3.1502834E-1,-6.0997177E-2,4.1204822E-1,8.451723E-1,-8.649427E-1,-4.8872337E-1,-1.1379857E0,-9.2872745E-1,-1.6930625E-1,2.3782527E-1,-6.1877745E-1,-3.3899295E-1,5.279421E-1,2.5657934E-1,-1.0402286E-1,2.8571826E-1,2.6105654E-1,5.7746506E-1,1.018843E0,6.897755E-1,-1.1886638E0,-7.6563567E-1,-5.8932E-1,1.9099485E-2,-7.685044E-1,-1.2269154E0,-1.0587671E-1,-9.331791E-1,-2.9505244E-1,6.9299646E-2,-1.72262E-1,3.7683824E-1,-6.8629E-1,-5.0457764E-1,-4.4481596E-1,-1.668095E-1,2.833267E-2,6.2274384E-1,-6.6038543E-1,2.8070304E-1,-2.3149636E-1,-4.7723286E-2,9.232423E-1,2.0859176E-1,-5.807389E-2,2.9855725E-1,5.273219E-1,9.4184035E-1,3.263759E-1,1.0505383E0,7.175962E-1,-4.0419884E-2,-8.694422E-1,-4.0530497E-1,-5.298848E-1,-9.819581E-1,-1.2365619E-1,7.7763593E-1,-9.9517035E-1,5.7402197E-2,-6.819072E-1,-9.4727874E-1,-5.3792693E-2,-4.2202273E-1,3.3258694E-1,-3.501018E-4,-7.922561E-1,2.4647415E-1,7.5001055E-1,1.6353957E-1,-5.642108E-1,-7.657931E-1,5.694387E-1,-5.33293E-1,-4.141888E-1,-1.0431736E0,2.9321915E-1,-2.692567E-1,2.0532288E-1,-1.9000381E-1,9.57811E-1,2.5466585E-1,-1.8899983E-1,-1.1026397E0,8.770702E-1,-7.731563E-2,-1.5720113E-1,3.4988782E-1,3.950944E-2,-7.542784E-1,2.0380802E-1,4.6616578E-1,5.609699E-1,-1.0783486E0,5.506173E-1,1.1558558E0,1.0999775E0,4.551527E-1,5.834751E-1,9.340185E-1],"categories":[],"categories_nodes":[],"categories_segments":[],"categories_sizes":[],"default_left":[1,1,1,1,1,1,1,1,1,1,1,1,1,1,1,1,1,1,1,1,1,1,1,1,1,1,1,1,1,1,1,0,1,1,1,1,0,0,1,1,1,1,1,1,1,1,1,1,0,0,1,1,1,0,1,1,1,1,1,0,1,1,0,0,0,0,0,0,0,0,0,0,0,0,0,0,0,0,0,0,0,0,0,0,0,0,0,0,0,0,0,0,0,0,0,0,0,0,0,0,0,0,0,0,0,0,0,0,0,0,0],"id":2,"left_children":[1,3,5,7,9,11,13,15,17,19,21,23,25,27,29,31,33,35,37,39,41,43,45,47,49,51,53,55,57,59,61,-1,63,65,67,69,-1,-1,71,73,75,77,79,81,83,85,87,89,-1,-1,91,93,95,-1,97,99,101,103,105,-1,107,109,-1,-1,-1,-1,-1,-1,-1,-1,-1,-1,-1,-1,-1,-1,-1,-1,-1,-1,-1,-1,-1,-1,-1,-1,-1,-1,-1,-1,-1,-1,-1,-1,-1,-1,-1,-1,-1,-1,-1,-1,-1,-1,-1,-1,-1,-1,-1,-1,-1],"loss_changes":[3.4649878E2,6.127368E1,4.2332428E1,7.011322E0,1.6501064E1,1.2805515E1,1.2939972E1,5.048813E0,8.5694885E-1,4.449613E0,6.396904E0,1.4982185E0,4.389652E0,1.0242477E1,1.5776138E0,1.740448E0,3.796526E0,7.580719E-1,6.410217E-1,4.1000037E0,1.9759372E0,8.9992523E-1,3.1583462E0,1.2768154E0,2.5068383E0,1.8601661E0,1.4070072E0,2.6426764E0,3.1164093E0,4.868927E-1,9.978161E-1,0E0,2.1127014E0,9.236736E-1,1.5276806E0,2.4381938E0,0E0,0E0,6.52771E-2,2.7107458E0,8.754846E-1,2.5766997E0,1.8950808E0,5.269165E-1,2.2722645E0,1.5705528E0,3.336969E0,2.4793789E-1,0E0,0E0,1.5712166E0,2.739078E0,5.0517755E0,0E0,1.6217211E0,1.6538252E0,3.0250206E0,1.0119194E1,1.2599201E0,0E0,5.5020523E-1,7.900696E-1,0E0,0E0,0E0,0E0,0E0,0E0,0E0,0E0,0E0,0E0,0E0,0E0,0E0,0E0,0E0,0E0,0E0,0E0,0E0,0E0,0E0,0E0,0E0,0E0,0E0,0E0,0E0,0E0,0E0,0E0,0E0,0E0,0E0,0E0,0E0,0E0,0E0,0E0,0E0,0E0,0E0,0E0,0E0,0E0,0E0,0E0,0E0,0E0,0E0],"parents":[2147483647,0,0,1,1,2,2,3,3,4,4,5,5,6,6,7,7,8,8,9,9,10,10,11,11,12,12,13,13,14,14,15,15,16,16,17,17,18,18,19,19,20,20,21,21,22,22,23,23,24,24,25,25,26,26,27,27,28,28,29,29,30,30,32,32,33,33,34,34,35,35,38,38,39,39,40,40,41,41,42,42,43,43,44,44,45,45,46,46,47,47,50,50,51,51,52,52,54,54,55,55,56,56,57,57,58,58,60,60,61,61],"right_children":[2,4,6,8,10,12,14,16,18,20,22,24,26,28,30,32,34,36,38,40,42,44,46,48,50,52,54,56,58,60,62,-1,64,66,68,70,-1,-1,72,74,76,78,80,82,84,86,88,90,-1,-1,92,94,96,-1,98,100,102,104,106,-1,108,110,-1,-1,-1,-1,-1,-1,-1,-1,-1,-1,-1,-1,-1,-1,-1,-1,-1,-1,-1,-1,-1,-1,-1,-1,-1,-1,-1,-1,-1,-1,-1,-1,-1,-1,-1,-1,-1,-1,-1,-1,-1,-1,-1,-1,-1,-1,-1,-1,-1],"split_conditions":[5.75E1,4.75E1,6.35E1,5E-1,5E-1,5E-1,7.05E1,4.15E1,3.75E1,2.820014E1,5.35E1,2.2916374E1,2.7980255E1,2.4119268E1,5E-1,3.55E1,2.9115189E1,2.0065037E1,1.7020712E1,5.45E1,5.05E1,5.15E1,2.4181416E1,1.9459843E1,2.3027756E1,2.1654305E1,2.8168297E1,1.9289944E1,2.9637266E1,2.0013865E1,3.0708176E1,-3.5659915E-1,2.8324314E1,2.7639038E1,3.642267E1,1.978423E1,-3.6807463E-1,-3.1763013E-2,3.85E1,2.349302E1,2.261752E1,2.9327549E1,2.9381248E1,2.2572372E1,1.8133358E1,2.3930176E1,2.4904541E1,1.8872509E1,1.8682316E-1,-1.9811563E-1,2.3113567E1,2.15798E1,2.1738098E1,2.7697268E-1,2.888837E1,1.9174374E1,6.75E1,2.9326033E1,6.55E1,9.791277E-2,7.45E1,2.4703085E1,-1.2125966E-2,-2.6083267E-1,-1.2159149E-1,-1.5896545E-1,-2.9458743E-1,-3.7096858E-2,2.3329079E-1,-2.985511E-1,1.722066E-2,-2.0457216E-1,-2.8418362E-1,-1.6137809E-2,-1.2660682E-1,9.977609E-2,-1.0503054E-4,-2.3767684E-1,7.3942244E-2,2.2500317E-1,4.9061876E-2,-1.6926324E-1,-2.2973794E-1,1.7083162E-1,-1.5998791E-1,-1.2425665E-1,-3.1295207E-1,8.796575E-2,-8.077702E-2,6.1596867E-2,-5.7001147E-2,2.8734332E-1,7.639976E-2,-5.669995E-2,-3.3079192E-1,2.6312107E-1,-2.319469E-2,-4.716034E-2,1.0496635E-1,1.1852833E-2,-2.2628354E-1,6.114241E-2,1.3984974E-1,1.6829097E-1,-3.235046E-1,1.6518518E-1,3.4675676E-1,3.2999325E-1,1.365458E-1,1.7504254E-1,2.8020555E-1],"split_indices":[0,0,0,1,1,1,0,0,0,2,0,2,2,2,1,0,2,2,2,0,0,0,2,2,2,2,2,2,2,2,2,0,2,2,2,2,0,0,0,2,2,2,2,2,2,2,2,2,0,0,2,2,2,0,2,2,0,2,0,0,0,2,0,0,0,0,0,0,0,0,0,0,0,0,0,0,0,0,0,0,0,0,0,0,0,0,0,0,0,0,0,0,0,0,0,0,0,0,0,0,0,0,0,0,0,0,0,0,0,0,0],"split_type":[0,0,0,0,0,0,0,0,0,0,0,0,0,0,0,0,0,0,0,0,0,0,0,0,0,0,0,0,0,0,0,0,0,0,0,0,0,0,0,0,0,0,0,0,0,0,0,0,0,0,0,0,0,0,0,0,0,0,0,0,0,0,0,0,0,0,0,0,0,0,0,0,0,0,0,0,0,0,0,0,0,0,0,0,0,0,0,0,0,0,0,0,0,0,0,0,0,0,0,0,0,0,0,0,0,0,0,0,0,0,0],"sum_hessian":[1.8309773E3,9.1081885E2,9.201584E2,4.062833E2,5.0453555E2,4.2154227E2,4.9861612E2,1.5454544E2,2.5173784E2,1.6749043E2,3.3704514E2,1.3027605E2,2.9126624E2,4.151195E2,8.3496605E1,8.144832E1,7.309712E1,5.0767178E1,2.0097066E2,1.3496811E2,3.2522327E1,1.6063713E2,1.76408E2,2.6330114E1,1.0394594E2,2.5973444E2,3.1531792E1,2.1837033E2,1.9674919E2,3.6805992E1,4.6690613E1,1.654509E1,6.490323E1,6.0877228E1,1.2219893E1,1.17190485E1,3.9048126E1,1.2147524E0,1.997559E2,8.823263E1,4.6735485E1,8.172963E0,2.4349363E1,9.780646E1,6.2830666E1,1.0827772E2,6.813029E1,4.406503E0,2.1923613E1,1.9884417E0,1.019575E2,7.861729E1,1.8111714E2,2.2190158E0,2.9312775E1,2.2904518E1,1.9546582E2,1.7510014E2,2.1649042E1,2.1053917E0,3.47006E1,4.49936E1,1.6970147E0,4.92904E1,1.5612827E1,5.49142E1,5.963027E0,1.0988795E1,1.2310978E0,9.034603E0,2.6844456E0,1.323615E1,1.8651976E2,3.0914606E1,5.731802E1,8.987217E0,3.774827E1,2.9351172E0,5.237846E0,7.940674E0,1.640869E1,4.17677E1,5.603876E1,1.1457756E0,6.168489E1,1.0461516E2,3.6625583E0,1.2069828E1,5.6060463E1,2.4666028E0,1.9399002E0,2.4502919E0,9.95072E1,7.612088E1,2.4964087E0,4.7278605E0,1.7638928E2,8.136392E0,2.1176384E1,2.091607E1,1.9884458E0,1.26289986E2,6.9175835E1,1.7214339E2,2.9567604E0,8.91857E0,1.2730472E1,3.1257555E1,3.4430456E0,3.0060526E1,1.4933074E1],"tree_param":{"num_deleted":"0","num_feature":"3","num_nodes":"111","size_leaf_vector":"0"}},{"base_weights":[-1.0834646E-1,-5.613918E-1,1.3361202E-1,-7.3640764E-1,-3.8861743E-1,-3.15625E-2,3.6248073E-1,-5.791832E-1,-8.3696675E-1,-1.9347435E-1,-5.056714E-1,1.6923413E-1,-1.1866862E-1,5.464941E-1,2.547425E-1,-1.0230381E0,-5.1132214E-1,-9.773674E-1,-7.8614026E-1,-2.2902928E-1,6.6286236E-1,-5.651774E-1,-3.6964175E-1,1.2565859E-1,4.3723038E-1,-2.3396921E-1,-1.1306642E-2,2.6915202E-1,6.456628E-1,2.1206963E-1,6.4558625E-1,-5.953791E-1,-2.3971403E-1,-6.288705E-1,-1.0684695E0,-8.577898E-1,-6.420308E-1,3.590501E-1,-2.5176898E-1,2.8722724E-1,9.8997885E-1,-1.0961072E0,-5.435818E-1,-5.3260684E-1,-1.568794E-1,1.4182666E-1,-8.098621E-1,9.429982E-1,2.534391E-1,-2.9426062E-1,-2.6158549E-2,-4.4565134E-2,4.2297503E-1,5.6048885E-2,7.400251E-1,3.8191482E-1,7.47532E-1,1.4906214E-1,4.267725E-1,9.870875E-1,4.9119356E-1,-5.186935E-1,-8.2951874E-1,1.9928801E-1,-4.9982077E-1,-8.386885E-1,4.457827E-2,-3.4620956E-1,-8.9946383E-1,3.9058685E-1,-6.822104E-1,-5.645177E-1,8.3766323E-1,-2.2573005E-1,-8.147624E-1,7.3615944E-1,-3.3754098E-1,6.6541773E-1,-5.641862E-1,4.653481E-1,-5.8256453E-1,8.547516E-1,-2.3323461E-1,-1.07988484E-1,1.9238795E-1,3.6170605E-1,-6.484326E-1,-2.0965093E-1,-3.566798E-1,1.13254935E-1,-5.970539E-1,-2.74705E-1,-3.9157136E-3,5.525719E-1,-3.1333867E-1,8.866367E-1,-5.1518966E-2,-2.0528407E-1,8.270274E-1,6.443463E-1,1.2719338E-1,1.1874369E0,7.134104E-1,1.926347E-1,-9.7357444E-2,1.1209375E0,3.028598E-1,2.1630302E-1,1.0673074E0,-4.857579E-1,5.746412E-1],"categories":[],"categories_nodes":[],"categories_segments":[],"categories_sizes":[],"default_left":[1,1,1,1,1,1,1,1,1,1,1,1,1,1,1,0,1,1,1,1,1,1,1,1,1,1,1,1,1,1,1,1,1,1,0,1,1,1,1,1,0,0,1,1,1,1,0,0,1,1,1,1,1,1,1,1,1,1,1,1,1,0,0,0,0,0,0,0,0,0,0,0,0,0,0,0,0,0,0,0,0,0,0,0,0,0,0,0,0,0,0,0,0,0,0,0,0,0,0,0,0,0,0,0,0,0,0,0,0,0,0],"id":3,"left_children":[1,3,5,7,9,11,13,15,17,19,21,23,25,27,29,-1,31,33,35,37,39,41,43,45,47,49,51,53,55,57,59,61,63,65,-1,67,69,71,73,75,-1,-1,77,79,81,83,-1,-1,85,87,89,91,93,95,97,99,101,103,105,107,109,-1,-1,-1,-1,-1,-1,-1,-1,-1,-1,-1,-1,-1,-1,-1,-1,-1,-1,-1,-1,-1,-1,-1,-1,-1,-1,-1,-1,-1,-1,-1,-1,-1,-1,-1,-1,-1,-1,-1,-1,-1,-1,-1,-1,-1,-1,-1,-1,-1,-1],"loss_changes":[1.920107E2,1.81521E1,4.3189632E1,4.2868347E0,6.9596443E0,1.1639503E1,9.354279E0,3.1207733E0,5.2915955E-1,3.7281847E0,1.3493271E0,2.297091E0,5.7401404E0,4.665756E0,4.931633E0,0E0,2.2986107E0,7.318802E-1,8.804474E-1,1.6085095E0,3.225844E-1,9.1799927E-1,2.0479126E0,2.7564054E0,2.341897E0,2.7943048E0,3.503783E0,4.781149E0,3.1777458E0,3.6629581E0,1.0665798E0,1.023859E0,3.1765223E0,1.6756239E0,0E0,1.5988998E0,2.3411732E0,2.5232098E0,1.426961E0,1.2884696E0,0E0,0E0,3.5852585E0,1.9857779E0,2.368401E0,2.1999357E0,0E0,0E0,2.3565183E0,8.401909E-1,4.157756E0,2.1040046E0,1.82004E0,3.0984561E0,1.3945608E0,2.455472E0,5.3292084E-1,2.3219786E0,4.9903297E0,2.7434874E-1,2.093391E0,0E0,0E0,0E0,0E0,0E0,0E0,0E0,0E0,0E0,0E0,0E0,0E0,0E0,0E0,0E0,0E0,0E0,0E0,0E0,0E0,0E0,0E0,0E0,0E0,0E0,0E0,0E0,0E0,0E0,0E0,0E0,0E0,0E0,0E0,0E0,0E0,0E0,0E0,0E0,0E0,0E0,0E0,0E0,0E0,0E0,0E0,0E0,0E0,0E0,0E0],"parents":[2147483647,0,0,1,1,2,2,3,3,4,4,5,5,6,6,7,7,8,8,9,9,10,10,11,11,12,12,13,13,14,14,16,16,17,17,18,18,19,19,20,20,21,21,22,22,23,23,24,24,25,25,26,26,27,27,28,28,29,29,30,30,31,31,32,32,33,33,35,35,36,36,37,37,38,38,39,39,42,42,43,43,44,44,45,45,48,48,49,49,50,50,51,51,52,52,53,53,54,54,55,55,56,56,57,57,58,58,59,59,60,60],"right_children":[2,4,6,8,10,12,14,16,18,20,22,24,26,28,30,-1,32,34,36,38,40,42,44,46,48,50,52,54,56,58,60,62,64,66,-1,68,70,72,74,76,-1,-1,78,80,82,84,-1,-1,86,88,90,92,94,96,98,100,102,104,106,108,110,-1,-1,-1,-1,-1,-1,-1,-1,-1,-1,-1,-1,-1,-1,-1,-1,-1,-1,-1,-1,-1,-1,-1,-1,-1,-1,-1,-1,-1,-1,-1,-1,-1,-1,-1,-1,-1,-1,-1,-1,-1,-1,-1,-1,-1,-1,-1,-1,-1,-1],"split_conditions":[5.35E1,4.55E1,6.35E1,5E-1,5E-1,5E-1,5E-1,3.55E1,3.75E1,3.2482994E1,5.15E1,2.8681686E1,5.85E1,2.313827E1,7.15E1,-3.0691147E-1,2.8324314E1,2.0065037E1,2.4160053E1,1.9540108E1,3.5536514E1,1.804364E1,2.3844444E1,2.8509651E1,2.935614E1,2.5823765E1,2.896606E1,6.95E1,6.55E1,2.6058834E1,2.1795134E1,2.626449E1,2.9874916E1,1.978423E1,-3.2054088E-1,3.85E1,2.4262196E1,1.8886705E1,3.1058716E1,3.3471134E1,2.9699367E-1,-3.2883218E-1,1.821786E1,1.8133358E1,2.4177122E1,5.55E1,-2.4295864E-1,2.8289947E-1,6.25E1,2.183529E1,3.0604176E1,2.0448536E1,3.4309906E1,1.8753569E1,1.838036E1,6.45E1,2.3273735E1,2.4686447E1,2.6376808E1,1.8762764E1,2.2172905E1,-1.5560806E-1,-2.4885564E-1,5.9786405E-2,-1.4994624E-1,-2.5160655E-1,1.3373481E-2,-1.03862874E-1,-2.6983917E-1,1.1717606E-1,-2.0466313E-1,-1.693553E-1,2.51299E-1,-6.771902E-2,-2.4442874E-1,2.2084785E-1,-1.012623E-1,1.9962533E-1,-1.6925587E-1,1.3960443E-1,-1.7476937E-1,2.564255E-1,-6.9970384E-2,-3.2396547E-2,5.771639E-2,1.0851182E-1,-1.9452979E-1,-6.289528E-2,-1.0700394E-1,3.397648E-2,-1.7911617E-1,-8.24115E-2,-1.1747142E-3,1.6577157E-1,-9.4001606E-2,2.65991E-1,-1.545569E-2,-6.1585225E-2,2.4810822E-1,1.933039E-1,3.8158014E-2,3.562311E-1,2.1402313E-1,5.7790413E-2,-2.9207235E-2,3.3628124E-1,9.0857945E-2,6.4890906E-2,3.2019222E-1,-1.4572737E-1,1.7239237E-1],"split_indices":[0,0,0,1,1,1,1,0,0,2,0,2,0,2,0,0,2,2,2,2,2,2,2,2,2,2,2,0,0,2,2,2,2,2,0,0,2,2,2,2,0,0,2,2,2,0,0,0,0,2,2,2,2,2,2,0,2,2,2,2,2,0,0,0,0,0,0,0,0,0,0,0,0,0,0,0,0,0,0,0,0,0,0,0,0,0,0,0,0,0,0,0,0,0,0,0,0,0,0,0,0,0,0,0,0,0,0,0,0,0,0],"split_type":[0,0,0,0,0,0,0,0,0,0,0,0,0,0,0,0,0,0,0,0,0,0,0,0,0,0,0,0,0,0,0,0,0,0,0,0,0,0,0,0,0,0,0,0,0,0,0,0,0,0,0,0,0,0,0,0,0,0,0,0,0,0,0,0,0,0,0,0,0,0,0,0,0,0,0,0,0,0,0,0,0,0,0,0,0,0,0,0,0,0,0,0,0,0,0,0,0,0,0,0,0,0,0,0,0,0,0,0,0,0,0],"sum_hessian":[1.749948E3,6.087669E2,1.141181E3,3.0080112E2,3.079658E2,6.6332306E2,4.7785803E2,1.1997677E2,1.8082437E2,1.16462166E2,1.9150362E2,2.0040576E2,4.6291727E2,1.7495984E2,3.028982E2,1.40440645E1,1.059327E2,4.3216255E1,1.3760811E2,1.1252279E2,3.939377E0,1.310299E2,6.0473713E1,1.7364104E2,2.6764729E1,2.2263782E2,2.4027945E2,4.7060677E1,1.2789916E2,2.744734E2,2.8424803E1,7.998652E1,2.5946178E1,1.0593893E1,3.2622364E1,8.860329E1,4.9004826E1,3.6384335E0,1.0888435E2,2.707897E0,1.23148E0,3.176621E0,1.2785328E2,3.3393047E1,2.7080667E1,1.7152507E2,2.1159735E0,6.0327196E0,2.073201E1,1.7224806E2,5.0389748E1,2.240207E2,1.6258745E1,3.3168594E1,1.3892084E1,3.6958786E1,9.094038E1,2.135102E2,6.09632E1,7.17066E0,2.125414E1,6.26746E1,1.7311922E1,9.740394E0,1.6205786E1,7.8902593E0,2.703633E0,7.375162E0,8.122812E1,1.5087554E0,4.749607E1,1.1806589E0,2.4577744E0,1.05409996E2,3.4743583E0,1.4719344E0,1.2359625E0,1.6180289E0,1.2623525E2,1.1955653E0,3.219748E1,1.1850827E0,2.5895584E1,2.8681011E1,1.4284406E2,1.9044691E1,1.6873186E0,7.497612E1,9.727195E1,4.114395E1,9.245795E0,3.276443E1,1.9125627E2,1.4037567E1,2.221177E0,2.9726467E0,3.0195946E1,1.0562329E0,1.2835852E1,1.7450487E1,1.9508299E1,4.1130953E0,8.6827286E1,1.8161485E2,3.1895348E1,8.015242E0,5.294796E1,1.02438E0,6.1462803E0,1.2931912E0,1.996095E1],"tree_param":{"num_deleted":"0","num_feature":"3","num_nodes":"111","size_leaf_vector":"0"}},{"base_weights":[-8.1053495E-2,-4.8772168E-1,7.792676E-2,-6.859983E-1,-3.8523757E-1,-5.9370775E-2,2.5526237E-1,-7.6436996E-1,-5.508905E-1,-2.1429245E-1,-4.9784887E-1,9.026826E-2,-1.2592827E-1,2.0800205E-1,5.584808E-1,-7.0645183E-1,-9.7531426E-1,6.4795494E-1,-5.958654E-1,-2.7977672E-1,1.6689217E-1,-5.8214873E-1,-3.900992E-1,4.2069573E-2,3.672169E-1,-1.9088396E-1,-3.288853E-2,3.362023E-1,1.4029288E-1,4.1894197E-1,7.492324E-1,-8.405329E-1,-5.452948E-1,-1.1569684E0,-4.7052586E-1,-8.8972676E-1,-5.302932E-1,-2.5231537E-1,-5.837405E-1,5.0312173E-1,-1.3785733E-1,1.9724205E-1,-6.069585E-1,-8.6767715E-1,-3.5798228E-1,8.546647E-2,-3.7230065E-1,2.0032498E-1,7.767836E-1,-2.4798791E-1,-5.229004E-2,-6.067273E-2,4.10529E-1,1.0715905E-1,4.2514095E-1,-3.19171E-1,1.647539E-1,4.9270725E-1,-3.9644852E-1,8.8939565E-1,5.684537E-1,-5.5394876E-1,-9.2994994E-1,-3.5153836E-1,-8.225821E-1,6.9270337E-1,-8.4886664E-1,2.6519606E-1,-1.0825646E0,-8.843297E-1,-4.271217E-1,-2.723516E-1,6.872987E-1,1.6676123E-1,-9.6286917E-1,-3.9336345E-1,6.793002E-1,-2.9033607E-1,5.9281224E-1,4.8248085E-1,-2.6769808E-1,-6.7654854E-1,-4.3892974E-1,4.5484868E-1,-3.9473957E-1,6.0992386E-2,6.7031634E-1,-7.892694E-1,-2.243697E-1,7.0590097E-1,7.323986E-2,8.5877985E-1,3.3413336E-1,-2.3469147E-1,-1.059043E0,1.1000029E0,-8.615763E-2,-4.9517345E-2,-9.755292E-1,8.7578875E-1,1.816969E-1,2.0310044E-1,-7.24996E-1,2.596824E-1,5.5507207E-1,-1.09726265E-2,-7.240275E-1,1.3930595E-1,5.252777E-1,7.9836637E-1,3.4926423E-1,-4.260392E-2,-7.1443456E-1,9.676476E-1,4.2716986E-1,6.6233224E-1,-1.2762718E-1],"categories":[],"categories_nodes":[],"categories_segments":[],"categories_sizes":[],"default_left":[1,1,1,1,1,1,1,1,1,1,1,1,1,1,1,1,1,0,1,1,1,1,1,1,1,1,1,1,1,1,1,1,1,0,1,1,1,1,1,1,1,1,1,0,1,1,1,1,1,1,1,1,1,1,1,1,1,1,1,1,1,0,0,0,0,0,0,0,0,0,0,0,0,0,0,0,0,0,0,0,0,0,0,0,0,0,0,0,0,0,0,0,0,0,0,0,0,0,0,0,0,0,0,0,0,0,0,0,0,0,0,0,0,0,0,0,0],"id":4,"left_children":[1,3,5,7,9,11,13,15,17,19,21,23,25,27,29,31,33,-1,35,37,39,41,43,45,47,49,51,53,55,57,59,61,63,-1,65,67,69,71,73,75,77,79,81,-1,83,85,87,89,91,93,95,97,99,101,103,105,107,109,111,113,115,-1,-1,-1,-1,-1,-1,-1,-1,-1,-1,-1,-1,-1,-1,-1,-1,-1,-1,-1,-1,-1,-1,-1,-1,-1,-1,-1,-1,-1,-1,-1,-1,-1,-1,-1,-1,-1,-1,-1,-1,-1,-1,-1,-1,-1,-1,-1,-1,-1,-1,-1,-1,-1,-1,-1,-1],"loss_changes":[1.0866644E2,9.334404E0,2.9447327E1,1.2697067E0,5.9319954E0,6.8051825E0,7.445713E0,5.141411E-1,3.7398663E0,3.2002144E0,1.483799E0,2.7955298E0,2.8495889E0,3.9295158E0,1.5642986E0,1.2895775E0,1.1599407E0,0E0,6.93449E-1,7.557783E-1,2.031354E0,2.1238823E0,1.0040398E0,3.2775705E0,1.9692693E0,2.1877346E0,2.4333043E0,3.1652603E0,3.441206E0,2.7828922E0,2.1764183E-1,5.690212E-1,1.8375034E0,0E0,3.4944253E0,2.4155335E0,1.5186033E0,2.0883498E0,2.4945989E0,1.7390323E0,1.3785938E0,6.533042E-1,8.804779E-1,0E0,2.6298513E0,2.3093941E0,8.898952E-1,1.4539752E0,2.7100086E-2,1.8722773E0,3.3107154E0,1.8380027E0,1.0817957E0,3.7736948E0,2.2893753E0,1.936162E0,2.5592551E0,1.4704342E0,4.334873E-1,1.0410118E-1,1.080184E0,0E0,0E0,0E0,0E0,0E0,0E0,0E0,0E0,0E0,0E0,0E0,0E0,0E0,0E0,0E0,0E0,0E0,0E0,0E0,0E0,0E0,0E0,0E0,0E0,0E0,0E0,0E0,0E0,0E0,0E0,0E0,0E0,0E0,0E0,0E0,0E0,0E0,0E0,0E0,0E0,0E0,0E0,0E0,0E0,0E0,0E0,0E0,0E0,0E0,0E0,0E0,0E0,0E0,0E0,0E0,0E0],"parents":[2147483647,0,0,1,1,2,2,3,3,4,4,5,5,6,6,7,7,8,8,9,9,10,10,11,11,12,12,13,13,14,14,15,15,16,16,18,18,19,19,20,20,21,21,22,22,23,23,24,24,25,25,26,26,27,27,28,28,29,29,30,30,31,31,32,32,34,34,35,35,36,36,37,37,38,38,39,39,40,40,41,41,42,42,44,44,45,45,46,46,47,47,48,48,49,49,50,50,51,51,52,52,53,53,54,54,55,55,56,56,57,57,58,58,59,59,60,60],"right_children":[2,4,6,8,10,12,14,16,18,20,22,24,26,28,30,32,34,-1,36,38,40,42,44,46,48,50,52,54,56,58,60,62,64,-1,66,68,70,72,74,76,78,80,82,-1,84,86,88,90,92,94,96,98,100,102,104,106,108,110,112,114,116,-1,-1,-1,-1,-1,-1,-1,-1,-1,-1,-1,-1,-1,-1,-1,-1,-1,-1,-1,-1,-1,-1,-1,-1,-1,-1,-1,-1,-1,-1,-1,-1,-1,-1,-1,-1,-1,-1,-1,-1,-1,-1,-1,-1,-1,-1,-1,-1,-1,-1,-1,-1,-1,-1,-1,-1],"split_conditions":[5.15E1,4.15E1,6.25E1,2.4952211E1,5E-1,5E-1,7.05E1,4.05E1,2.5047558E1,2.9422539E1,4.75E1,2.8672586E1,5.85E1,5E-1,2.4703085E1,3.75E1,2.2773998E1,1.943865E-1,3.55E1,2.8522358E1,3.1153198E1,1.821843E1,1.8549202E1,2.7508377E1,5.95E1,2.5123543E1,2.9379375E1,2.313827E1,1.8821617E1,2.4452147E1,5E-1,2.0065037E1,2.2873404E1,-3.470905E-1,2.325689E1,2.566321E1,2.587188E1,2.8202362E1,4.45E1,4.35E1,3.642267E1,4.65E1,2.4812706E1,-2.6030317E-1,1.9446934E1,2.7206081E1,2.7648808E1,2.9197014E1,3.1318443E1,2.5074894E1,2.5185867E1,2.9179855E1,3.0136791E1,2.2916954E1,6.55E1,1.8127695E1,2.9006088E1,2.0970388E1,7.25E1,7.35E1,3.0708176E1,-1.6618463E-1,-2.78985E-1,-1.05461515E-1,-2.4677464E-1,2.0781101E-1,-2.5466E-1,7.955882E-2,-3.2476938E-1,-2.652989E-1,-1.2813652E-1,-8.170548E-2,2.0618962E-1,5.0028373E-2,-2.8886077E-1,-1.1800904E-1,2.0379007E-1,-8.7100826E-2,1.7784368E-1,1.4474426E-1,-8.030943E-2,-2.0296457E-1,-1.3167892E-1,1.3645461E-1,-1.18421875E-1,1.8297717E-2,2.0109491E-1,-2.3678082E-1,-6.7310914E-2,2.117703E-1,2.197196E-2,2.5763395E-1,1.00240014E-1,-7.040744E-2,-3.1771293E-1,3.3000088E-1,-2.584729E-2,-1.4855204E-2,-2.9265878E-1,2.6273665E-1,5.4509073E-2,6.0930137E-2,-2.174988E-1,7.7904716E-2,1.6652162E-1,-3.291788E-3,-2.1720827E-1,4.1791786E-2,1.5758331E-1,2.3950993E-1,1.0477927E-1,-1.2781177E-2,-2.1433038E-1,2.902943E-1,1.2815097E-1,1.9869968E-1,-3.8288154E-2],"split_indices":[0,0,0,2,1,1,0,0,2,2,0,2,0,1,2,0,2,0,0,2,2,2,2,2,0,2,2,2,2,2,1,2,2,0,2,2,2,2,0,0,2,0,2,0,2,2,2,2,2,2,2,2,2,2,0,2,2,2,0,0,2,0,0,0,0,0,0,0,0,0,0,0,0,0,0,0,0,0,0,0,0,0,0,0,0,0,0,0,0,0,0,0,0,0,0,0,0,0,0,0,0,0,0,0,0,0,0,0,0,0,0,0,0,0,0,0,0],"split_type":[0,0,0,0,0,0,0,0,0,0,0,0,0,0,0,0,0,0,0,0,0,0,0,0,0,0,0,0,0,0,0,0,0,0,0,0,0,0,0,0,0,0,0,0,0,0,0,0,0,0,0,0,0,0,0,0,0,0,0,0,0,0,0,0,0,0,0,0,0,0,0,0,0,0,0,0,0,0,0,0,0,0,0,0,0,0,0,0,0,0,0,0,0,0,0,0,0,0,0,0,0,0,0,0,0,0,0,0,0,0,0,0,0,0,0,0,0],"sum_hessian":[1.6791968E3,4.7137122E2,1.2078256E3,1.5867943E2,3.1269177E2,6.811375E2,5.2668805E2,9.747807E1,6.1201363E1,1.25334946E2,1.8735684E2,2.0958289E2,4.7155463E2,4.571254E2,6.9562614E1,7.989156E1,1.7586508E1,1.7281806E0,5.947318E1,1.0718714E2,1.8147804E1,1.02646645E2,8.47102E1,1.7949622E2,3.0086672E1,2.7706793E2,1.944867E2,1.5661876E2,3.0050665E2,4.202021E1,2.7542408E1,4.1308044E1,3.858352E1,1.1982483E1,5.604026E0,8.556888E0,5.0916294E1,9.998423E1,7.2029114E0,8.318777E0,9.829027E0,2.9522634E0,9.969438E1,3.6984334E0,8.1011765E1,1.6319824E2,1.6297968E1,2.2434204E1,7.6524673E0,1.9566151E2,8.140643E1,1.8383113E2,1.0655548E1,4.442252E1,1.12196236E2,1.4580757E1,2.859259E2,3.889708E1,3.1231308E0,1.3306033E1,1.4236374E1,1.1534562E1,2.9773483E1,2.4047756E1,1.4535762E1,1.171448E0,4.432578E0,1.1706331E0,7.386255E0,9.78101E0,4.1135284E1,9.859201E1,1.3922217E0,2.605452E0,4.5974593E0,1.1638359E0,7.154941E0,8.630605E0,1.1984217E0,1.806349E0,1.1459143E0,6.8357414E1,3.1336966E1,3.0128517E0,7.799891E1,1.5770316E2,5.495081E0,3.1326542E0,1.3165314E1,3.5915563E0,1.8842648E1,5.663313E0,1.9891547E0,1.9377414E2,1.887368E0,1.425527E0,7.99809E1,1.82658E2,1.1731316E0,2.5808895E0,8.074658E0,4.050816E1,3.9143603E0,5.067001E1,6.1526226E1,8.861792E0,5.7189655E0,2.6836917E2,1.755673E1,1.0965415E1,2.7931664E1,2.014945E0,1.1081856E0,1.0444407E1,2.8616261E0,1.258725E1,1.6491238E0],"tree_param":{"num_deleted":"0","num_feature":"3","num_nodes":"117","size_leaf_vector":"0"}},{"base_weights":[-6.0827035E-2,-3.4312254E-1,7.485745E-2,-5.237508E-1,-2.3858179E-1,2.3912441E-2,3.1793627E-1,-3.7427026E-1,-6.33009E-1,-1.2060612E-1,-3.1589007E-1,-7.955987E-2,7.653871E-2,-4.9955332E-1,3.363616E-1,-7.935956E-1,-3.073363E-1,-4.3104395E-1,-6.769794E-1,-1.8602264E-1,2.586474E-1,-4.787286E-1,-2.6286337E-1,-2.7105743E-1,-2.6148321E-2,2.8715268E-2,2.0941299E-1,-8.119431E-1,4.5393355E-2,3.0328864E-1,7.8623337E-1,-9.460462E-1,-2.6948527E-1,-5.664379E-1,1.1200466E-1,-6.9233334E-1,-1.9047874E-1,3.898108E-1,-2.0997325E-1,1.266076E0,6.408628E-2,-1.8908992E-1,-6.991513E-1,-6.306761E-2,-3.5359755E-1,-1.755625E-1,-1.1482315E0,5.298029E-1,-7.583539E-2,4.9781136E-2,-3.90824E-1,6.646925E-1,1.5834443E-1,2.4006072E-1,5.297226E-1,8.656193E-1,3.1159064E-1,2.7963164E-1,-2.976338E-1,-7.154323E-1,-3.3474147E-1,6.700031E-1,-4.8936176E-1,-8.224888E-1,-6.32487E-1,-7.292317E-1,4.1540298E-1,-1.9825403E-1,7.109636E-1,-3.6023116E-1,-1.06174655E-1,-1.140229E0,2.2185518E-1,-9.572405E-1,-3.301868E-2,-5.634847E-1,-8.960107E-1,-3.2851988E-1,4.010641E-1,-1.0608242E0,-3.1185424E-1,-2.9729697E-1,2.4369155E-1,-1.3397412E0,-5.1605916E-1,3.8518372E-1,1.4291548E0,-1.9028038E-1,-9.76992E-4,3.646487E-2,7.404136E-1,-8.6235815E-1,5.580876E-2,1.2454851E0,4.644869E-1,1.0767967E-1,3.433519E-1,1.0587872E-2,3.1552848E-1,9.654246E-1,3.9171633E-1,9.915021E-1,2.9805693E-1],"categories":[],"categories_nodes":[],"categories_segments":[],"categories_sizes":[],"default_left":[1,1,1,1,1,1,1,1,1,1,1,1,1,1,1,0,1,1,1,1,1,1,1,1,1,1,1,0,0,1,1,0,1,1,1,1,1,1,1,0,1,1,1,1,1,1,1,1,1,1,1,1,1,1,1,1,0,0,0,0,0,0,0,0,0,0,0,0,0,0,0,0,0,0,0,0,0,0,0,0,0,0,0,0,0,0,0,0,0,0,0,0,0,0,0,0,0,0,0,0,0,0,0],"id":5,"left_children":[1,3,5,7,9,11,13,15,17,19,21,23,25,27,29,-1,31,33,35,37,39,41,43,45,47,49,51,-1,-1,53,55,-1,57,59,61,63,65,67,69,-1,71,73,75,77,79,81,83,85,87,89,91,93,95,97,99,101,-1,-1,-1,-1,-1,-1,-1,-1,-1,-1,-1,-1,-1,-1,-1,-1,-1,-1,-1,-1,-1,-1,-1,-1,-1,-1,-1,-1,-1,-1,-1,-1,-1,-1,-1,-1,-1,-1,-1,-1,-1,-1,-1,-1,-1,-1,-1],"loss_changes":[6.218818E1,9.826523E0,1.357605E1,2.904705E0,3.0231705E0,4.95007E0,3.02956E0,2.1046124E0,6.82251E-1,3.3847938E0,1.6197243E0,3.128704E0,3.8215697E0,8.1821847E-1,2.5347214E0,0E0,1.528965E0,1.7077017E0,5.2786636E-1,1.6718576E0,3.8789442E0,2.9604158E0,2.7823982E0,5.3902054E0,6.69272E0,3.9442592E0,3.5975451E0,0E0,0E0,2.381895E0,1.8757057E-1,0E0,1.1815772E0,3.8415575E-1,2.1056187E0,1.4374924E-1,1.6352794E0,1.0765171E0,1.6981907E0,0E0,3.6705282E0,2.6423943E0,2.1985435E-1,6.234718E0,2.8037825E0,3.2052307E0,8.022499E-2,2.0355625E0,1.9012573E0,3.8699841E0,4.5434866E0,1.2527943E0,1.3175468E0,2.400814E0,1.872199E0,4.071331E-1,0E0,0E0,0E0,0E0,0E0,0E0,0E0,0E0,0E0,0E0,0E0,0E0,0E0,0E0,0E0,0E0,0E0,0E0,0E0,0E0,0E0,0E0,0E0,0E0,0E0,0E0,0E0,0E0,0E0,0E0,0E0,0E0,0E0,0E0,0E0,0E0,0E0,0E0,0E0,0E0,0E0,0E0,0E0,0E0,0E0,0E0,0E0],"parents":[2147483647,0,0,1,1,2,2,3,3,4,4,5,5,6,6,7,7,8,8,9,9,10,10,11,11,12,12,13,13,14,14,16,16,17,17,18,18,19,19,20,20,21,21,22,22,23,23,24,24,25,25,26,26,29,29,30,30,32,32,33,33,34,34,35,35,36,36,37,37,38,38,40,40,41,41,42,42,43,43,44,44,45,45,46,46,47,47,48,48,49,49,50,50,51,51,52,52,53,53,54,54,55,55],"right_children":[2,4,6,8,10,12,14,16,18,20,22,24,26,28,30,-1,32,34,36,38,40,42,44,46,48,50,52,-1,-1,54,56,-1,58,60,62,64,66,68,70,-1,72,74,76,78,80,82,84,86,88,90,92,94,96,98,100,102,-1,-1,-1,-1,-1,-1,-1,-1,-1,-1,-1,-1,-1,-1,-1,-1,-1,-1,-1,-1,-1,-1,-1,-1,-1,-1,-1,-1,-1,-1,-1,-1,-1,-1,-1,-1,-1,-1,-1,-1,-1,-1,-1,-1,-1,-1,-1],"split_conditions":[5.35E1,4.35E1,6.75E1,5E-1,5E-1,5.85E1,1.8377934E1,3.55E1,1.991814E1,2.9439598E1,2.0983395E1,2.127364E1,2.5993652E1,7.05E1,2.9433968E1,-2.380787E-1,1.9824276E1,1.9641018E1,3.2653076E1,1.9540108E1,2.9724968E1,1.9656584E1,2.2834038E1,2.111066E1,2.183529E1,2.5626978E1,2.6208916E1,-2.4358295E-1,1.3618007E-2,7.15E1,7.25E1,-2.8381386E-1,2.0982147E1,3.95E1,3.85E1,3.75E1,3.9E1,1.8886705E1,4.85E1,3.7982282E-1,3.0085869E1,1.7876379E1,5.05E1,2.2182865E1,2.3079964E1,2.0692966E1,2.1226673E1,2.1789795E1,2.4386532E1,2.552252E1,6.25E1,5.95E1,2.9637266E1,2.1916346E1,2.1795134E1,3.2474125E1,9.34772E-2,8.38895E-2,-8.929014E-2,-2.146297E-1,-1.0042245E-1,2.0100094E-1,-1.4680853E-1,-2.4674664E-1,-1.8974611E-1,-2.1876952E-1,1.246209E-1,-5.947621E-2,2.132891E-1,-1.0806935E-1,-3.1852398E-2,-3.420687E-1,6.655656E-2,-2.8717217E-1,-9.905604E-3,-1.6904542E-1,-2.688032E-1,-9.855597E-2,1.2031923E-1,-3.1824726E-1,-9.355628E-2,-8.91891E-2,7.3107466E-2,-4.0192237E-1,-1.5481776E-1,1.1555512E-1,4.2874643E-1,-5.7084117E-2,-2.930976E-4,1.0939461E-2,2.2212408E-1,-2.5870746E-1,1.6742628E-2,3.7364554E-1,1.3934608E-1,3.2303903E-2,1.0300557E-1,3.1763618E-3,9.4658546E-2,2.896274E-1,1.175149E-1,2.9745063E-1,8.9417085E-2],"split_indices":[0,0,0,1,1,0,2,0,2,2,2,2,2,0,2,0,2,2,2,2,2,2,2,2,2,2,2,0,0,0,0,0,2,0,0,0,0,2,0,0,2,2,0,2,2,2,2,2,2,2,0,0,2,2,2,2,0,0,0,0,0,0,0,0,0,0,0,0,0,0,0,0,0,0,0,0,0,0,0,0,0,0,0,0,0,0,0,0,0,0,0,0,0,0,0,0,0,0,0,0,0,0,0],"split_type":[0,0,0,0,0,0,0,0,0,0,0,0,0,0,0,0,0,0,0,0,0,0,0,0,0,0,0,0,0,0,0,0,0,0,0,0,0,0,0,0,0,0,0,0,0,0,0,0,0,0,0,0,0,0,0,0,0,0,0,0,0,0,0,0,0,0,0,0,0,0,0,0,0,0,0,0,0,0,0,0,0,0,0,0,0,0,0,0,0,0,0,0,0,0,0,0,0,0,0,0,0,0,0],"sum_hessian":[1.6219093E3,5.260072E2,1.0959021E3,1.9136014E2,3.346471E2,9.0692505E2,1.8897704E2,8.2674904E1,1.0868523E2,1.3349231E2,2.0115479E2,3.055835E2,6.0134155E2,3.589879E0,1.8538715E2,9.885876E0,7.278903E1,2.1363106E1,8.732212E1,1.14288475E2,1.9203836E1,4.7441063E1,1.5371371E2,6.575517E1,2.3982832E2,4.4308484E2,1.5825674E2,1.9704005E0,1.6194785E0,1.7425102E2,1.1136133E1,2.7299E0,7.005913E1,1.7065285E1,4.29782E0,8.424041E1,3.0817103E0,3.9537864E0,1.1033469E2,2.2169952E0,1.6986841E1,2.1304491E1,2.613657E1,4.853508E1,1.0517864E2,6.0381763E1,5.3734093E0,1.888297E1,2.2094536E2,4.227396E2,2.0345219E1,1.4749383E1,1.4350737E2,1.3782565E2,3.642536E1,8.834756E0,2.3013775E0,2.9805675E0,6.707856E1,9.115612E0,7.949673E0,2.1700916E0,2.1277285E0,2.2520004E1,6.1720406E1,1.5234572E0,1.558253E0,1.5317217E0,2.4220645E0,4.4069534E1,6.626515E1,1.2462775E0,1.5740563E1,2.730783E0,1.8573708E1,1.7759739E1,8.376831E0,3.1061922E1,1.7473158E1,4.501416E0,1.0067722E2,4.701996E1,1.3361807E1,3.265036E0,2.1083732E0,1.7497583E1,1.3853878E0,8.676122E1,1.3418414E2,4.1577573E2,6.9638815E0,9.443943E0,1.0901277E1,2.4425542E0,1.23068285E1,1.1389811E2,2.9609251E1,3.4391773E1,1.0343388E2,7.319936E0,2.9105425E1,6.6196084E0,2.2151475E0],"tree_param":{"num_deleted":"0","num_feature":"3","num_nodes":"103","size_leaf_vector":"0"}},{"base_weights":[-4.5712125E-2,-3.015224E-1,4.3804474E-2,-4.6642575E-1,-2.2575459E-1,-4.2958718E-2,1.3461456E-1,-5.1602715E-1,-2.2976735E-1,-1.0526363E-1,-3.1282887E-1,-1.8566485E-1,-8.765557E-3,2.5725794E-1,7.2613925E-2,-6.228242E-1,-4.3759862E-1,3.561734E-1,-4.001336E-1,-2.2122607E-1,2.6792346E-3,-2.6374987E-1,-5.1299536E-1,-1.0210308E-1,-6.5361553E-1,4.5942286E-1,-2.8845407E-2,1.9727542E-1,5.058653E-1,4.1822344E-2,1.8358038E-1,-3.5494968E-1,-6.899764E-1,-6.1207335E-2,-5.399785E-1,-2.051632E-1,9.0637434E-1,-6.850721E-1,-3.497875E-2,-1.7186883E-1,-8.4653234E-1,1.2500998E0,-4.6059787E-2,-3.1766462E-1,2.076406E-3,-6.3475746E-1,-2.55836E-1,-1.3101241E-1,1.1316367E0,-2.8587072E-4,-7.154073E-1,3.0739665E-1,1.0518545E0,-7.7175546E-1,-1.5605269E-2,1.703188E-1,7.228334E-1,2.3927318E-1,7.067477E-1,8.858703E-2,-1.7732367E-1,8.1332874E-1,8.879848E-2,-6.3858455E-1,3.311622E-1,-8.082643E-1,-5.0114787E-1,3.829762E-1,-3.4906346E-1,-7.2904676E-1,-3.509094E-1,3.0867943E-1,-7.2149676E-1,1.152968E0,2.4168469E-1,-1.500012E-1,-7.7967757E-1,-4.1093716E-1,7.26402E-1,-2.0303927E-1,7.34987E-1,-7.622039E-1,-2.0878341E-2,-5.087974E-1,-2.2002625E-1,5.6700575E-1,-1.7184052E-1,-4.077539E-1,-8.7564087E-1,2.6755992E-1,-6.658539E-1,-3.5487172E-1,-1.50333755E-2,-4.035576E-1,-9.5557433E-1,5.662759E-1,-2.7826774E-1,2.6070312E-1,1.2596467E0,-4.481774E-1,-1.0872871E0,9.5542276E-1,-2.8619269E-2,2.1118708E-1,-1.0719215E0,9.9172115E-1,2.5723147E-1,5.472091E-1,-7.0306206E-1,9.3747205E-1,5.216611E-1,4.785361E-2,5.562611E-1,-1.2894128E-1,-9.113512E-1,1.5904757E-1,9.7734064E-1,-8.279682E-1,1.305902E-1],"categories":[],"categories_nodes":[],"categories_segments":[],"categories_sizes":[],"default_left":[1,1,1,1,1,1,1,1,1,1,1,1,1,1,1,1,1,1,1,1,1,1,1,1,1,1,1,1,1,1,1,1,1,1,1,1,1,1,1,1,0,0,1,1,1,1,1,1,0,0,1,1,1,1,1,1,1,1,1,1,1,1,1,0,0,0,0,0,0,0,0,0,0,0,0,0,0,0,0,0,0,0,0,0,0,0,0,0,0,0,0,0,0,0,0,0,0,0,0,0,0,0,0,0,0,0,0,0,0,0,0,0,0,0,0,0,0,0,0],"id":6,"left_children":[1,3,5,7,9,11,13,15,17,19,21,23,25,27,29,31,33,35,37,39,41,43,45,47,49,51,53,55,57,59,61,63,65,67,69,71,73,75,77,79,-1,-1,81,83,85,87,89,91,-1,-1,93,95,97,99,101,103,105,107,109,111,113,115,117,-1,-1,-1,-1,-1,-1,-1,-1,-1,-1,-1,-1,-1,-1,-1,-1,-1,-1,-1,-1,-1,-1,-1,-1,-1,-1,-1,-1,-1,-1,-1,-1,-1,-1,-1,-1,-1,-1,-1,-1,-1,-1,-1,-1,-1,-1,-1,-1,-1,-1,-1,-1,-1,-1,-1,-1],"loss_changes":[3.6167427E1,5.009865E0,9.227647E0,1.3833618E0,2.9304352E0,2.9227753E0,4.3317375E0,6.0671806E-1,2.5355833E0,1.5026155E0,1.4704647E0,4.461096E0,4.5683193E0,2.7591133E0,1.295527E0,5.1215744E-1,2.4289064E0,2.0171683E0,1.9574552E0,1.6402888E0,3.8960497E0,1.9114857E0,8.1228065E-1,3.6947298E0,7.005906E-1,1.476603E0,4.5670886E0,2.0882764E0,1.7923536E0,3.088721E0,4.8551617E0,2.2538915E0,3.2289982E-1,2.024721E0,1.5350637E0,1.2177222E0,2.423873E-1,4.2179728E-1,2.9894238E0,1.7006029E0,0E0,0E0,1.0972104E0,1.9567461E0,2.403871E0,7.6118374E-1,2.6842017E0,2.5404289E0,0E0,0E0,8.021288E-1,2.783065E0,2.74642E-1,3.428588E-1,5.820205E0,7.8306527E0,6.597307E-1,5.3905163E0,3.8106346E-1,4.69374E0,1.7671341E0,9.902692E-1,2.900189E0,0E0,0E0,0E0,0E0,0E0,0E0,0E0,0E0,0E0,0E0,0E0,0E0,0E0,0E0,0E0,0E0,0E0,0E0,0E0,0E0,0E0,0E0,0E0,0E0,0E0,0E0,0E0,0E0,0E0,0E0,0E0,0E0,0E0,0E0,0E0,0E0,0E0,0E0,0E0,0E0,0E0,0E0,0E0,0E0,0E0,0E0,0E0,0E0,0E0,0E0,0E0,0E0,0E0,0E0,0E0,0E0],"parents":[2147483647,0,0,1,1,2,2,3,3,4,4,5,5,6,6,7,7,8,8,9,9,10,10,11,11,12,12,13,13,14,14,15,15,16,16,17,17,18,18,19,19,20,20,21,21,22,22,23,23,24,24,25,25,26,26,27,27,28,28,29,29,30,30,31,31,32,32,33,33,34,34,35,35,36,36,37,37,38,38,39,39,42,42,43,43,44,44,45,45,46,46,47,47,50,50,51,51,52,52,53,53,54,54,55,55,56,56,57,57,58,58,59,59,60,60,61,61,62,62],"right_children":[2,4,6,8,10,12,14,16,18,20,22,24,26,28,30,32,34,36,38,40,42,44,46,48,50,52,54,56,58,60,62,64,66,68,70,72,74,76,78,80,-1,-1,82,84,86,88,90,92,-1,-1,94,96,98,100,102,104,106,108,110,112,114,116,118,-1,-1,-1,-1,-1,-1,-1,-1,-1,-1,-1,-1,-1,-1,-1,-1,-1,-1,-1,-1,-1,-1,-1,-1,-1,-1,-1,-1,-1,-1,-1,-1,-1,-1,-1,-1,-1,-1,-1,-1,-1,-1,-1,-1,-1,-1,-1,-1,-1,-1,-1,-1,-1,-1,-1,-1],"split_conditions":[5.15E1,4.15E1,6.15E1,2.8324314E1,5E-1,2.1234669E1,5E-1,3.75E1,2.9026981E1,2.5208702E1,2.706247E1,2.0997036E1,2.1495525E1,6.95E1,2.6006184E1,2.0065037E1,3.85E1,2.854512E1,3.85E1,2.5076694E1,2.5273102E1,2.4703384E1,3.075697E1,2.0972809E1,5.25E1,2.145981E1,2.1648905E1,3.012016E1,2.4046053E1,2.4511782E1,2.6350655E1,1.978423E1,2.4046732E1,2.28401E1,2.2587696E1,2.8446972E1,3.75E1,2.9936909E1,3.2462883E1,2.5054354E1,-2.5395972E-1,3.7502995E-1,2.531444E1,4.55E1,4.45E1,2.8896221E1,3.2755463E1,5.55E1,3.3949104E-1,-8.576122E-5,2.111066E1,2.1359247E1,5.45E1,5.95E1,2.1716476E1,2.9326033E1,3.1321445E1,2.3311855E1,2.5415363E1,2.4089062E1,2.5969234E1,2.6058834E1,2.6400803E1,-1.9157538E-1,9.934867E-2,-2.4247931E-1,-1.5034437E-1,1.1489286E-1,-1.0471904E-1,-2.1871404E-1,-1.0527283E-1,9.260383E-2,-2.1644904E-1,3.4589043E-1,7.250541E-2,-4.500036E-2,-2.3390327E-1,-1.2328115E-1,2.179206E-1,-6.0911786E-2,2.2049612E-1,-2.2866116E-1,-6.2635024E-3,-1.5263923E-1,-6.600788E-2,1.7010173E-1,-5.1552158E-2,-1.2232618E-1,-2.6269227E-1,8.026798E-2,-1.9975619E-1,-1.0646152E-1,-4.510013E-3,-1.21067286E-1,-2.8667232E-1,1.6988277E-1,-8.348033E-2,7.8210935E-2,3.77894E-1,-1.3445322E-1,-3.2618612E-1,2.8662685E-1,-8.585781E-3,6.3356124E-2,-3.2157645E-1,2.9751635E-1,7.716945E-2,1.6416273E-1,-2.1091862E-1,2.8124163E-1,1.5649834E-1,1.4356084E-2,1.6687834E-1,-3.8682386E-2,-2.7340537E-1,4.7714274E-2,2.932022E-1,-2.4839047E-1,3.917706E-2],"split_indices":[0,0,0,2,1,2,1,0,2,2,2,2,2,0,2,2,0,2,0,2,2,2,2,2,0,2,2,2,2,2,2,2,2,2,2,2,0,2,2,2,0,0,2,0,0,2,2,0,0,0,2,2,0,0,2,2,2,2,2,2,2,2,2,0,0,0,0,0,0,0,0,0,0,0,0,0,0,0,0,0,0,0,0,0,0,0,0,0,0,0,0,0,0,0,0,0,0,0,0,0,0,0,0,0,0,0,0,0,0,0,0,0,0,0,0,0,0,0,0],"split_type":[0,0,0,0,0,0,0,0,0,0,0,0,0,0,0,0,0,0,0,0,0,0,0,0,0,0,0,0,0,0,0,0,0,0,0,0,0,0,0,0,0,0,0,0,0,0,0,0,0,0,0,0,0,0,0,0,0,0,0,0,0,0,0,0,0,0,0,0,0,0,0,0,0,0,0,0,0,0,0,0,0,0,0,0,0,0,0,0,0,0,0,0,0,0,0,0,0,0,0,0,0,0,0,0,0,0,0,0,0,0,0,0,0,0,0,0,0,0,0],"sum_hessian":[1.5778374E3,4.083975E2,1.16944E3,1.2694805E2,2.8144943E2,5.983152E2,5.7112476E2,1.0397532E2,2.2972727E1,1.1899559E2,1.6245384E2,1.1479309E2,4.835221E2,1.9071747E2,3.804073E2,4.1086308E1,6.2889015E1,4.929176E0,1.804355E1,5.6860832E1,6.2134754E1,1.3232628E2,3.0127565E1,9.843397E1,1.6359123E1,1.8984867E1,4.6453723E2,1.5509143E2,3.5626026E1,2.9885596E2,8.155131E1,9.495176E0,3.159113E1,1.37898E1,4.9099216E1,2.7503119E0,2.178864E0,9.642881E0,8.40067E0,5.388258E1,2.9782524E0,1.4095693E0,6.0725185E1,1.0985129E2,2.2474995E1,1.9449905E1,1.0677659E1,9.705359E1,1.3803782E0,1.5003573E0,1.4858767E1,1.6316658E1,2.6682093E0,7.1308875E0,4.5740634E2,1.4878415E2,6.3072805E0,1.6250721E1,1.9375307E1,2.4678831E2,5.2067654E1,9.676672E0,7.187463E1,6.7670045E0,2.7281716E0,1.7406652E1,1.4184478E1,5.292552E0,8.497248E0,2.3121674E1,2.5977543E1,1.5800525E0,1.1702594E0,1.0534482E0,1.1254158E0,1.8372548E0,7.8056264E0,5.9318733E0,2.4687965E0,5.284239E1,1.0401922E0,1.068526E0,5.965666E1,3.5718735E1,7.413255E1,4.7583556E0,1.7716639E1,1.1399755E1,8.050151E0,4.842964E0,5.8346953E0,3.2419205E1,6.4634384E1,7.630765E0,7.2280016E0,1.1338046E1,4.978613E0,1.0240104E0,1.6441989E0,4.715512E0,2.4153755E0,5.0915275E0,4.5231482E2,1.4484879E2,3.9353652E0,3.281956E0,3.0253248E0,1.2564278E1,3.686444E0,6.814933E0,1.2560373E1,2.2802974E2,1.8758581E1,4.9950874E1,2.116779E0,2.334309E0,7.3423624E0,2.3134615E0,6.956117E1],"tree_param":{"num_deleted":"0","num_feature":"3","num_nodes":"119","size_leaf_vector":"0"}},{"base_weights":[-3.398752E-2,-2.944684E-1,1.8175922E-2,-1.86361E-1,-3.7801197E-1,-2.0597903E-2,1.5472431E-1,-4.929476E-1,-1.2210343E-1,-3.4988844E-1,-7.002831E-1,5.100804E-2,-5.5553183E-2,4.5317918E-2,2.8872427E-1,-1.8837345E-1,-1.0770211E0,2.3589902E-1,-1.626396E-1,-3.7506118E-1,8.6737245E-1,-9.80252E-1,-2.9618493E-1,3.429183E-2,4.513572E-1,-5.412786E-1,-4.9033474E-2,7.7912204E-2,-7.047002E-1,8.2482743E-1,2.19314E-1,-5.941313E-1,2.7714303E-1,-2.474452E-1,6.6018933E-1,-4.2078653E-1,-8.114907E-2,-4.4996855E-1,-2.5607383E-1,4.8191324E-1,-6.844186E-1,4.626992E-2,-1.1391057E0,-2.50051E-1,5.4523176E-1,-2.055735E-1,-9.9271226E-1,-6.413688E-2,1.6844904E-1,4.473589E-2,3.161985E-1,-8.176771E-1,-2.2443525E-1,1.5446843E-1,9.620652E-1,-1.0630606E0,2.4713685E-1,-1.982537E-1,-7.13461E-1,8.0943364E-1,-8.3792396E-2,5.633561E-1,-8.5998744E-1,1.3695145E0,-1.2840182E-1,-1.8514098E-1,-8.163899E-1,1.2637677E0,-1.2197074E-1,-2.9449576E-1,-5.285725E-1,-4.6914935E-1,-1.6814719E-1,-1.0612105E-1,-8.337029E-1,4.02705E-2,9.1298974E-1,8.6232644E-1,3.634292E-1,-5.923657E-1,7.8995395E-1,3.5817742E-1,-7.1272165E-2,3.4065303E-1,-4.6788222E-1,-4.4572144E-3,2.1581435E-1,6.345403E-1,8.3889976E-2,-4.0183067E-1,-1.2295235E0,-5.484391E-1,8.1000817E-1,1.1394438E0,5.8498865E-1,1.7422155E-1,5.548452E-1],"categories":[],"categories_nodes":[],"categories_segments":[],"categories_sizes":[],"default_left":[1,1,1,1,1,1,1,1,1,1,1,1,1,1,1,1,0,1,1,1,0,0,1,1,1,1,1,1,1,1,1,1,1,1,1,1,1,1,1,0,1,1,0,0,1,1,0,1,1,1,1,1,0,1,1,0,1,0,0,0,0,0,0,0,0,0,0,0,0,0,0,0,0,0,0,0,0,0,0,0,0,0,0,0,0,0,0,0,0,0,0,0,0,0,0,0,0],"id":7,"left_children":[1,3,5,7,9,11,13,15,17,19,21,23,25,27,29,31,-1,33,35,37,-1,-1,39,41,43,45,47,49,51,53,55,57,59,61,63,65,67,69,71,-1,73,75,-1,-1,77,79,-1,81,83,85,87,89,-1,91,93,-1,95,-1,-1,-1,-1,-1,-1,-1,-1,-1,-1,-1,-1,-1,-1,-1,-1,-1,-1,-1,-1,-1,-1,-1,-1,-1,-1,-1,-1,-1,-1,-1,-1,-1,-1,-1,-1,-1,-1,-1,-1],"loss_changes":[2.0998219E1,2.2582436E0,6.823399E0,2.192897E0,1.0643597E0,2.5162592E0,4.1652265E0,3.2638283E0,1.4297734E0,4.45804E0,9.0854025E-1,2.192431E0,2.1118205E0,3.9195557E0,4.5790806E0,2.812926E0,0E0,2.2469935E0,1.7901261E0,1.0687599E0,0E0,0E0,2.0728452E0,4.5190644E0,1.0015986E0,1.1362078E0,2.203036E0,1.1906765E0,1.7912817E-1,1.1670761E0,4.3521824E0,2.2745466E-1,1.4532752E0,3.2045999E0,3.3548717E0,1.7662425E0,3.8408668E0,8.244171E-1,9.2605615E-1,0E0,2.7951336E-1,1.6039093E0,0E0,0E0,3.7287116E-1,2.9066403E0,0E0,1.9082212E0,4.938636E0,1.1366245E0,1.3120213E0,3.678205E-1,0E0,2.1129746E0,1.1463261E-1,0E0,2.4385524E0,0E0,0E0,0E0,0E0,0E0,0E0,0E0,0E0,0E0,0E0,0E0,0E0,0E0,0E0,0E0,0E0,0E0,0E0,0E0,0E0,0E0,0E0,0E0,0E0,0E0,0E0,0E0,0E0,0E0,0E0,0E0,0E0,0E0,0E0,0E0,0E0,0E0,0E0,0E0,0E0],"parents":[2147483647,0,0,1,1,2,2,3,3,4,4,5,5,6,6,7,7,8,8,9,9,10,10,11,11,12,12,13,13,14,14,15,15,17,17,18,18,19,19,22,22,23,23,24,24,25,25,26,26,27,27,28,28,29,29,30,30,31,31,32,32,33,33,34,34,35,35,36,36,37,37,38,38,40,40,41,41,44,44,45,45,47,47,48,48,49,49,50,50,51,51,53,53,54,54,56,56],"right_children":[2,4,6,8,10,12,14,16,18,20,22,24,26,28,30,32,-1,34,36,38,-1,-1,40,42,44,46,48,50,52,54,56,58,60,62,64,66,68,70,72,-1,74,76,-1,-1,78,80,-1,82,84,86,88,90,-1,92,94,-1,96,-1,-1,-1,-1,-1,-1,-1,-1,-1,-1,-1,-1,-1,-1,-1,-1,-1,-1,-1,-1,-1,-1,-1,-1,-1,-1,-1,-1,-1,-1,-1,-1,-1,-1,-1,-1,-1,-1,-1,-1],"split_conditions":[4.75E1,5E-1,6.55E1,2.2299969E1,3.02328E1,5E-1,2.4069057E1,2.156612E1,2.3454453E1,2.956767E1,3.2436348E1,3.1436821E1,1.745712E1,2.395143E1,2.4462906E1,2.0478886E1,-3.2310635E-1,4.15E1,2.4952211E1,4.35E1,2.6021174E-1,-2.940756E-1,3.397495E1,3.107156E1,4.95E1,1.7173317E1,6.45E1,7.15E1,2.4047512E1,6.65E1,2.453037E1,3.85E1,2.0993668E1,2.284977E1,4.35E1,2.4461048E1,2.5035831E1,2.0915916E1,2.1068136E1,1.4457397E-1,4.1E1,3.0915041E1,-3.4173173E-1,-7.50153E-2,3.1875034E1,1.7002779E1,-2.9781368E-1,1.8111118E1,2.7183613E1,2.3130657E1,2.1795134E1,7.05E1,-6.733058E-2,5E-1,2.4271225E1,-3.189182E-1,2.8734589E1,-5.9476115E-2,-2.140383E-1,2.428301E-1,-2.513772E-2,1.6900684E-1,-2.5799623E-1,4.1085437E-1,-3.8520545E-2,-5.5542298E-2,-2.4491699E-1,3.7913033E-1,-3.6591224E-2,-8.834873E-2,-1.5857175E-1,-1.407448E-1,-5.044416E-2,-3.1836316E-2,-2.501109E-1,1.2081151E-2,2.7389693E-1,2.5869796E-1,1.09028764E-1,-1.7770971E-1,2.3698619E-1,1.07453234E-1,-2.138165E-2,1.0219591E-1,-1.4036468E-1,-1.3371643E-3,6.474431E-2,1.9036211E-1,2.5166994E-2,-1.2054921E-1,-3.688571E-1,-1.6453174E-1,2.4300246E-1,3.4183314E-1,1.7549661E-1,5.2266467E-2,1.6645357E-1],"split_indices":[0,1,0,2,2,1,2,2,2,2,2,2,2,2,2,2,0,0,2,0,0,0,2,2,0,2,0,0,2,0,2,0,2,2,0,2,2,2,2,0,0,2,0,0,2,2,0,2,2,2,2,0,0,1,2,0,2,0,0,0,0,0,0,0,0,0,0,0,0,0,0,0,0,0,0,0,0,0,0,0,0,0,0,0,0,0,0,0,0,0,0,0,0,0,0,0,0],"split_type":[0,0,0,0,0,0,0,0,0,0,0,0,0,0,0,0,0,0,0,0,0,0,0,0,0,0,0,0,0,0,0,0,0,0,0,0,0,0,0,0,0,0,0,0,0,0,0,0,0,0,0,0,0,0,0,0,0,0,0,0,0,0,0,0,0,0,0,0,0,0,0,0,0,0,0,0,0,0,0,0,0,0,0,0,0,0,0,0,0,0,0,0,0,0,0,0,0],"sum_hessian":[1.5440043E3,2.5683588E2,1.2871683E3,1.13366974E2,1.4346889E2,1.0031628E3,2.840056E2,1.848754E1,9.487943E1,1.3387202E2,9.5968685E0,3.2891687E2,6.742459E2,1.5708734E2,1.2691826E2,1.3020378E1,5.4671607E0,9.160183E0,8.571925E1,1.3183752E2,2.0344977E0,4.8269E0,4.7699685E0,3.1677585E2,1.2141026E1,7.8439155E0,6.66402E2,1.5140376E2,5.6835847E0,1.3301136E1,1.1361712E2,6.80909E0,6.2112875E0,4.4769363E0,4.6832466E0,1.9567957E1,6.61513E1,7.9197716E1,5.2639805E1,1.5074466E0,3.262522E0,3.1452573E2,2.2501235E0,1.236739E0,1.0904286E1,5.3332586E0,2.5106568E0,6.2378723E2,4.261475E1,1.3394281E2,1.7460955E1,4.032443E0,1.6511414E0,2.6215127E0,1.0679624E1,1.6225913E0,1.1199453E2,2.1935055E0,4.615585E0,2.007751E0,4.2035365E0,1.9612262E0,2.51571E0,2.0777152E0,2.6055312E0,1.3183222E1,6.3847356E0,1.0661899E0,6.5085106E1,2.8188854E1,5.100886E1,1.4110258E1,3.852955E1,1.020433E0,2.242089E0,3.1340283E2,1.1229059E0,2.6095626E0,8.2947235E0,4.132595E0,1.2006637E0,9.546779E0,6.142405E2,3.3904243E1,8.710506E0,1.0478588E2,2.9156925E1,6.635965E0,1.0824989E1,2.9895442E0,1.0428989E0,1.343892E0,1.2776207E0,5.888067E0,4.791557E0,9.180613E1,2.0188404E1],"tree_param":{"num_deleted":"0","num_feature":"3","num_nodes":"97","size_leaf_vector":"0"}},{"base_weights":[-2.4977116E-2,-1.8344945E-1,2.641544E-2,-4.4074717E-1,-1.4987434E-1,4.0676957E-3,1.5422942E-1,-8.254584E-1,-3.907956E-1,-7.303408E-2,-2.1023376E-1,-9.804706E-5,5.2440286E-1,-1.8648286E-1,1.8623662E-1,-1.5944728E-1,-4.415216E-1,-9.368688E-2,2.5729904E-1,-6.3290846E-1,-1.967208E-1,2.8266956E-3,-7.75014E-1,9.193494E-1,1.986235E-2,-2.6225274E-2,-1.2149082E0,9.778137E-1,1.6946112E-1,-4.3591097E-1,3.2030368E-1,-6.328425E-1,-2.9464355E-1,-8.009355E-2,-5.2786165E-1,1.0473197E0,-2.8555011E-2,9.605177E-2,-8.8555413E-1,8.454419E-1,-2.0994583E-1,6.71393E-2,-2.661944E-2,-9.804918E-1,-2.817315E-1,-6.680627E-1,4.781774E-1,-2.7425244E-1,5.322521E-1,-5.8054537E-1,1.8572487E-1,-1.8074891E-3,-6.173131E-1,6.81888E-2,4.2322364E-1,-3.454175E-1,-7.4402505E-1,6.343303E-1,-3.9558354E-1,-9.999676E-2,4.6364743E-1,-6.633664E-1,-1.2163945E-1,-5.850697E-1,2.529085E-1,-6.972515E-1,-1.9739306E-1,-2.0085874E-1,8.488263E-2,-6.1216384E-1,-2.307921E-2,7.101736E-1,4.0497392E-2,2.4475697E-2,-4.7914577E-1,-2.8405643E-1,8.669384E-1,-6.85344E-1,-1.7123643E-1,6.619776E-1,1.5920731E-1],"categories":[],"categories_nodes":[],"categories_segments":[],"categories_sizes":[],"default_left":[1,1,1,1,1,1,1,0,1,1,1,1,1,1,1,1,1,1,1,1,1,1,1,0,1,1,0,0,1,1,1,1,1,1,1,0,1,0,0,0,1,1,1,0,0,0,1,1,1,1,1,0,0,0,0,0,0,0,0,0,0,0,0,0,0,0,0,0,0,0,0,0,0,0,0,0,0,0,0,0,0],"id":8,"left_children":[1,3,5,7,9,11,13,-1,15,17,19,21,23,25,27,29,31,33,35,37,39,41,43,-1,45,47,-1,-1,49,51,53,55,57,59,61,-1,63,-1,-1,-1,65,67,69,-1,-1,-1,71,73,75,77,79,-1,-1,-1,-1,-1,-1,-1,-1,-1,-1,-1,-1,-1,-1,-1,-1,-1,-1,-1,-1,-1,-1,-1,-1,-1,-1,-1,-1,-1,-1],"loss_changes":[1.2384126E1,3.1505814E0,3.280311E0,4.9345112E-1,1.5192947E0,2.1215205E0,1.8986497E0,0E0,3.9295387E-1,1.0276713E0,9.3089676E-1,2.2050526E0,1.5307422E0,2.4695623E0,1.9156942E0,1.2889827E0,7.0764446E-1,7.7913415E-1,2.0449162E0,1.0562756E0,2.665391E0,1.8373955E0,9.456015E-2,0E0,1.7178352E0,2.1064389E0,0E0,0E0,1.9948277E0,4.6515882E-1,6.8302035E-2,1.5674639E-1,2.1142201E0,1.5196075E0,1.4203656E-1,0E0,1.3267398E0,0E0,0E0,0E0,9.57613E-1,1.4659674E0,1.365616E0,0E0,0E0,0E0,3.0070662E-1,6.519919E-1,1.5283219E0,3.3883214E-2,1.816412E0,0E0,0E0,0E0,0E0,0E0,0E0,0E0,0E0,0E0,0E0,0E0,0E0,0E0,0E0,0E0,0E0,0E0,0E0,0E0,0E0,0E0,0E0,0E0,0E0,0E0,0E0,0E0,0E0,0E0,0E0],"parents":[2147483647,0,0,1,1,2,2,3,3,4,4,5,5,6,6,8,8,9,9,10,10,11,11,12,12,13,13,14,14,15,15,16,16,17,17,18,18,19,19,20,20,21,21,22,22,24,24,25,25,28,28,29,29,30,30,31,31,32,32,33,33,34,34,36,36,40,40,41,41,42,42,46,46,47,47,48,48,49,49,50,50],"right_children":[2,4,6,8,10,12,14,-1,16,18,20,22,24,26,28,30,32,34,36,38,40,42,44,-1,46,48,-1,-1,50,52,54,56,58,60,62,-1,64,-1,-1,-1,66,68,70,-1,-1,-1,72,74,76,78,80,-1,-1,-1,-1,-1,-1,-1,-1,-1,-1,-1,-1,-1,-1,-1,-1,-1,-1,-1,-1,-1,-1,-1,-1,-1,-1,-1,-1,-1,-1],"split_conditions":[5.15E1,3.75E1,6.75E1,3.35E1,5E-1,3.501116E1,1.9970377E1,-2.4763753E-1,2.0065037E1,3.2447353E1,1.7995457E1,3.4291245E1,3.6178017E1,1.985565E1,2.0091476E1,1.9770193E1,2.4027931E1,3.1683277E1,3.276837E1,1.69776E1,1.8134481E1,5E-1,5.65E1,2.7580482E-1,3.6468605E1,7.05E1,-3.6447248E-1,2.9334414E-1,2.0163904E1,1.8074905E1,1.9904E1,3.55E1,2.4454205E1,3.0919441E1,4.8E1,3.141959E-1,3.3952034E1,2.8815532E-2,-2.6566625E-1,2.5363258E-1,1.8549202E1,2.0803959E1,1.6821194E1,-2.9414755E-1,-8.4519446E-2,-2.0041882E-1,3.8019783E1,1.8892094E1,1.8135849E1,5E-1,2.0780785E1,-5.4224674E-4,-1.8519393E-1,2.0456642E-2,1.269671E-1,-1.0362525E-1,-2.2320752E-1,1.902991E-1,-1.1867507E-1,-2.9999029E-2,1.3909423E-1,-1.9900993E-1,-3.6491837E-2,-1.7552093E-1,7.5872555E-2,-2.0917545E-1,-5.921792E-2,-6.0257625E-2,2.546479E-2,-1.8364915E-1,-6.9237635E-3,2.130521E-1,1.21492185E-2,7.3427097E-3,-1.4374374E-1,-8.521693E-2,2.6008153E-1,-2.056032E-1,-5.137093E-2,1.9859329E-1,4.7762197E-2],"split_indices":[0,0,0,0,1,2,2,0,2,2,2,2,2,2,2,2,2,2,2,2,2,1,0,0,2,0,0,0,2,2,2,0,2,2,0,0,2,0,0,0,2,2,2,0,0,0,2,2,2,1,2,0,0,0,0,0,0,0,0,0,0,0,0,0,0,0,0,0,0,0,0,0,0,0,0,0,0,0,0,0,0],"split_type":[0,0,0,0,0,0,0,0,0,0,0,0,0,0,0,0,0,0,0,0,0,0,0,0,0,0,0,0,0,0,0,0,0,0,0,0,0,0,0,0,0,0,0,0,0,0,0,0,0,0,0,0,0,0,0,0,0,0,0,0,0,0,0,0,0,0,0,0,0,0,0,0,0,0,0,0,0,0,0,0,0],"sum_hessian":[1.5189935E3,3.71348E2,1.1476455E3,4.1464417E1,3.2988358E2,9.77726E2,1.6991951E2,2.9809446E0,3.848347E1,1.4610071E2,1.8378287E2,9.709525E2,6.7735214E0,1.4177346E1,1.5574217E2,7.66566E0,3.081781E1,1.3817805E2,7.922662E0,4.273517E0,1.7950935E2,9.6829425E2,2.6582527E0,3.3382435E0,3.435278E0,1.3153207E1,1.0241392E0,2.0431862E0,1.5369897E2,4.9211526E0,2.7445073E0,1.1947097E1,1.8870712E1,1.3513176E2,3.046291E0,1.3972441E0,6.525418E0,1.259446E0,3.014071E0,1.460885E0,1.7804846E2,3.0370322E2,6.6459106E2,1.1793172E0,1.4789354E0,1.1905812E0,2.2446966E0,9.460571E0,3.692636E0,2.5257938E0,1.5117319E2,1.7480215E0,3.1731312E0,1.2775459E0,1.4669615E0,4.47786E0,7.4692373E0,1.3315868E0,1.7539125E1,1.3114731E2,3.9844503E0,1.809633E0,1.236658E0,1.8294758E0,4.695942E0,3.1014824E0,1.7494698E2,1.8217844E1,2.8548535E2,2.9608319E0,6.6163025E2,1.060162E0,1.1845347E0,4.207179E0,5.253392E0,1.1177326E0,2.5749032E0,1.4740005E0,1.0517932E0,6.709394E0,1.4446379E2],"tree_param":{"num_deleted":"0","num_feature":"3","num_nodes":"81","size_leaf_vector":"0"}},{"base_weights":[-1.8730266E-2,-9.0387136E-2,5.211081E-2,-2.5167382E-1,-6.455029E-2,1.2997806E-1,1.5267208E-2,-1.8817522E-1,-5.455763E-1,5.413978E-1,-6.785902E-2,9.8969E-2,3.381926E-1,6.6695907E-3,3.814512E-1,-2.6580244E-1,1.3376814E-1,-9.464121E-1,-2.5214246E-1,4.0299863E-2,8.0031496E-1,-6.184377E-1,-6.320064E-2,5.4242283E-1,8.78121E-2,1.998435E-1,7.3379457E-1,1.3506253E-2,-6.7753017E-1,7.100205E-1,-2.8085092E-1,-5.000141E-1,-1.9791597E-1,-3.3003904E-2,6.8862045E-1,8.3035564E-1,-4.4082862E-1,-1.0360744E0,2.294895E-1,3.6319602E-1,-6.829781E-2,8.463207E-2,6.658427E-1,-6.602421E-1,9.894005E-2,3.212546E-1,-3.922746E-1,9.462025E-1,-9.30401E-3,5.7061566E-3,4.5676914E-1,-8.28048E-1,-2.6372418E-1,9.996494E-1,3.6070693E-1,-1.0494998E0,2.536778E-1,-3.081369E-1,-8.5795784E-1,-6.4806175E-1,-1.3913727E-1,1.9253582E-1,-5.1239234E-1,-1.7963453E-1,-9.367016E-1,5.900802E-1,-4.7392708E-1,-7.026322E-1,-6.141218E-2,9.406406E-1,8.940224E-2,1.2304516E-1,7.888706E-1,-5.5817753E-1,-4.942512E-2,9.864316E-3,-8.765906E-1,1.0029192E0,-7.2926596E-2,-6.175557E-1,7.9548496E-1,-1.9234626E-1,6.5453666E-1],"categories":[],"categories_nodes":[],"categories_segments":[],"categories_sizes":[],"default_left":[1,1,1,1,1,1,1,1,1,1,1,1,1,1,1,1,1,0,1,0,0,1,1,1,1,1,1,1,1,1,1,1,1,1,0,0,1,0,0,1,1,0,0,0,1,1,1,0,0,1,1,0,0,0,1,0,1,0,0,0,0,0,0,0,0,0,0,0,0,0,0,0,0,0,0,0,0,0,0,0,0,0,0],"id":9,"left_children":[1,3,5,7,9,11,13,15,17,19,21,23,25,27,29,31,33,-1,35,-1,-1,37,39,41,43,45,47,49,51,53,55,57,59,61,-1,-1,63,-1,-1,65,67,-1,-1,-1,69,71,73,-1,-1,75,77,-1,-1,-1,79,-1,81,-1,-1,-1,-1,-1,-1,-1,-1,-1,-1,-1,-1,-1,-1,-1,-1,-1,-1,-1,-1,-1,-1,-1,-1,-1,-1],"loss_changes":[7.62545E0,3.0953374E0,2.1656456E0,1.8149734E0,1.3297918E0,1.5325127E0,1.6157384E0,2.1854434E0,1.8466988E0,4.36625E-1,1.6083584E0,1.0038099E0,1.55142E0,2.3631392E0,2.7615561E0,1.0084085E0,1.6307594E0,0E0,2.7352333E0,0E0,0E0,2.1058621E0,1.411561E0,2.2741365E-1,1.8008955E0,1.8773221E0,1.2185812E0,1.7235267E0,9.294343E-2,4.6428585E-1,2.1647375E0,7.655504E-1,1.3823023E0,1.6465073E0,0E0,0E0,1.1956766E0,0E0,0E0,1.7412627E0,2.7144842E0,0E0,0E0,0E0,1.5721397E0,1.8276081E0,2.337966E-1,0E0,0E0,1.8122809E0,2.5670297E0,0E0,0E0,0E0,2.728613E0,0E0,7.5717515E-1,0E0,0E0,0E0,0E0,0E0,0E0,0E0,0E0,0E0,0E0,0E0,0E0,0E0,0E0,0E0,0E0,0E0,0E0,0E0,0E0,0E0,0E0,0E0,0E0,0E0,0E0],"parents":[2147483647,0,0,1,1,2,2,3,3,4,4,5,5,6,6,7,7,8,8,9,9,10,10,11,11,12,12,13,13,14,14,15,15,16,16,18,18,21,21,22,22,23,23,24,24,25,25,26,26,27,27,28,28,29,29,30,30,31,31,32,32,33,33,36,36,39,39,40,40,44,44,45,45,46,46,49,49,50,50,54,54,56,56],"right_children":[2,4,6,8,10,12,14,16,18,20,22,24,26,28,30,32,34,-1,36,-1,-1,38,40,42,44,46,48,50,52,54,56,58,60,62,-1,-1,64,-1,-1,66,68,-1,-1,-1,70,72,74,-1,-1,76,78,-1,-1,-1,80,-1,82,-1,-1,-1,-1,-1,-1,-1,-1,-1,-1,-1,-1,-1,-1,-1,-1,-1,-1,-1,-1,-1,-1,-1,-1,-1,-1],"split_conditions":[5.85E1,4.15E1,5E-1,4.05E1,1.7143421E1,6.95E1,3.1703882E1,3.95E1,2.2773998E1,1.6454102E1,1.7761948E1,1.8753569E1,2.6500084E1,3.0708176E1,3.441674E1,3.55E1,2.8428856E1,-2.8392363E-1,2.3325329E1,1.2089959E-2,2.400945E-1,5.55E1,1.8129805E1,6.35E1,1.9131985E1,2.5415363E1,7.35E1,2.9636581E1,6.55E1,3.2501846E1,3.4964603E1,2.566321E1,1.9727982E1,2.511131E1,2.0658614E-1,2.491067E-1,2.8446972E1,-3.1082234E-1,6.884685E-2,5.65E1,1.8549202E1,2.5389621E-2,1.9975282E-1,-1.9807263E-1,1.9420927E1,2.4046053E1,2.596032E1,2.8386077E-1,-2.791203E-3,2.9543404E1,3.0208344E1,-2.4841441E-1,-7.911725E-2,2.9989484E-1,3.2769333E1,-3.1484994E-1,6.35E1,-9.2441075E-2,-2.5738737E-1,-1.9441853E-1,-4.174118E-2,5.776075E-2,-1.5371771E-1,-5.389036E-2,-2.8101048E-1,1.7702407E-1,-1.4217813E-1,-2.1078967E-1,-1.8423656E-2,2.821922E-1,2.6820675E-2,3.691355E-2,2.3666118E-1,-1.6745326E-1,-1.4827537E-2,2.959295E-3,-2.6297718E-1,3.0087578E-1,-2.187798E-2,-1.852667E-1,2.386455E-1,-5.770388E-2,1.96361E-1],"split_indices":[0,0,1,0,2,0,2,0,2,2,2,2,2,2,2,0,2,0,2,0,0,0,2,0,2,2,0,2,0,2,2,2,2,2,0,0,2,0,0,0,2,0,0,0,2,2,2,0,0,2,2,0,0,0,2,0,0,0,0,0,0,0,0,0,0,0,0,0,0,0,0,0,0,0,0,0,0,0,0,0,0,0,0],"split_type":[0,0,0,0,0,0,0,0,0,0,0,0,0,0,0,0,0,0,0,0,0,0,0,0,0,0,0,0,0,0,0,0,0,0,0,0,0,0,0,0,0,0,0,0,0,0,0,0,0,0,0,0,0,0,0,0,0,0,0,0,0,0,0,0,0,0,0,0,0,0,0,0,0,0,0,0,0,0,0,0,0,0,0],"sum_hessian":[1.5002539E3,7.456954E2,7.5455853E2,1.01754074E2,6.439413E2,2.4154227E2,5.130163E2,8.502451E1,1.672956E1,2.613899E0,6.413274E2,2.1151674E2,3.0025534E1,5.0224237E2,1.0773913E1,6.864674E1,1.6377771E1,6.1302423E0,1.05993185E1,1.2841854E0,1.3297136E0,4.2752314E0,6.370521E2,4.022352E0,2.0749438E2,2.3360952E1,6.6645813E0,4.9824408E2,3.9982958E0,7.1531653E0,3.6207478E0,1.3995639E1,5.4651108E1,1.331592E1,3.0618505E0,1.0685117E0,9.530807E0,2.7157364E0,1.5594949E0,6.695508E0,6.303566E2,1.2121079E0,2.810244E0,2.1863954E0,2.0530798E2,1.9765562E1,3.59539E0,4.9704914E0,1.6940899E0,4.9062344E2,7.6206274E0,2.1978104E0,1.8004853E0,2.8928454E0,4.26032E0,1.0899687E0,2.5307791E0,1.0322871E1,3.672767E0,5.1540813E0,4.9497025E1,9.462455E0,3.8534656E0,7.1348724E0,2.3959346E0,5.499969E0,1.1955388E0,5.683941E0,6.2467267E2,1.2065765E0,2.0410141E2,1.4768666E1,4.996896E0,1.9996947E0,1.5956954E0,4.8930624E2,1.3172221E0,3.312176E0,4.3084517E0,1.1815059E0,3.078814E0,1.4441167E0,1.0866623E0],"tree_param":{"num_deleted":"0","num_feature":"3","num_nodes":"83","size_leaf_vector":"0"}}]},"name":"gbtree"},"learner_model_param":{"base_score":"5E-1","num_class":"0","num_feature":"3","num_target":"1"},"objective":{"name":"binary:logistic","reg_loss_param":{"scale_pos_weight":"1"}}},"version":[1,6,1]}